//Numpy array shape [32, 32]
//Min -0.323213756084
//Max 0.383098155260
//Number of zeros 0

#ifndef W8_H_
#define W8_H_

#ifndef __SYNTHESIS__
model_default_t w8[1024];
#else
model_default_t w8[1024] = {0.1121835336, 0.0185138602, -0.2409471422, -0.0937225223, 0.2579180598, 0.2649145722, -0.0000064068, 0.2094961107, -0.0830201507, 0.1114813760, 0.2489314079, 0.1323565543, 0.2992691994, -0.0000069036, -0.0000179230, 0.1611770391, -0.2214619815, 0.2731014490, -0.1751615107, -0.2379318923, 0.0000293913, -0.0896990746, 0.1669447869, 0.2423934489, -0.1198908836, -0.1437888145, -0.0862274021, -0.0338258892, 0.1723329127, 0.1467563957, 0.1786702275, 0.1221216470, -0.2174095213, -0.3014752865, -0.1341686994, 0.1275485605, 0.0170663819, 0.1505476832, -0.2129534334, 0.0590646677, -0.2419776767, -0.0388903469, -0.0611286610, -0.1800096482, -0.1558229923, -0.2141218930, -0.1815236658, -0.1788642704, 0.0313035995, 0.2518862188, 0.0062532318, 0.2271677256, 0.2407521456, 0.0975708440, 0.1222389936, -0.2224464417, -0.2690528035, -0.1352623701, -0.0058498923, -0.0164952371, -0.2630410790, -0.2548178434, 0.1134480461, 0.0114907455, 0.2120433599, 0.1596738696, -0.1444951892, 0.1540575176, 0.1160780191, 0.2006005794, -0.2046993226, -0.1030523330, 0.1066959798, 0.1835079938, 0.0750721395, 0.1901690513, -0.1903532892, -0.0208999906, -0.2497932464, 0.1458868533, -0.2849123180, -0.2291714400, 0.1407031715, 0.2850334048, 0.0029004589, -0.0160137117, -0.0967487916, 0.0577538870, -0.0972606242, 0.1900232434, 0.0675453767, -0.0891424865, 0.3006585836, 0.1760846376, 0.2088048905, 0.2724235654, 0.3025289178, -0.2030199021, 0.3063642979, 0.0366877541, -0.1112094447, -0.1166187376, -0.1939716488, 0.2684870958, -0.2349992692, -0.0502473041, 0.1650609523, 0.1231692806, -0.2215920687, 0.2299620509, -0.2130267322, -0.0897531733, 0.1372195184, -0.3067516088, 0.2200556993, -0.3131461740, 0.0351540297, -0.0762693062, -0.1739345491, -0.0230439287, -0.0284066554, -0.2015454322, -0.1558484733, 0.2356066555, 0.1020656452, 0.2810795009, 0.1694212705, -0.0847708657, 0.0131019149, -0.1536668837, -0.2008574605, -0.1322688013, -0.0423198976, -0.1904679686, 0.1251322478, 0.0078873616, 0.2623915076, -0.0835947618, 0.1171596721, -0.1630688608, 0.0592017062, 0.0297676362, -0.1730341315, -0.0925795510, -0.2980168164, -0.0946245492, 0.0469417758, 0.0509714410, -0.1595606506, 0.1247830987, 0.1525770724, 0.0354364626, 0.2146638781, 0.2410466820, 0.2374082655, -0.1502789706, -0.2107591480, -0.2521453798, -0.1833264530, -0.1019927859, -0.2315106094, -0.2219759524, 0.2046961188, -0.2844485939, 0.1090735421, 0.2196647227, -0.1317226142, -0.2147487253, 0.0700436532, -0.1296279281, 0.0386529863, 0.3185453415, 0.0300378446, 0.2206846029, 0.0885171443, -0.1957252473, 0.2837231755, -0.1015154198, 0.2058229446, 0.1689288765, 0.2900584638, 0.0261214152, 0.2107118666, 0.2577094138, 0.2338694036, 0.2045019269, 0.1671577841, -0.1133494452, 0.0234371517, 0.2186271250, -0.2303810567, -0.1999743134, 0.0241608229, 0.1743842065, -0.1431726217, 0.2810012400, 0.0365457870, 0.2557575107, -0.1787795573, 0.1652864665, -0.0850384086, 0.3446344733, -0.2875972390, 0.3422902822, -0.0798107162, -0.0163325202, -0.0492023304, 0.1370908767, -0.2825257182, 0.2849726081, 0.3129019439, 0.3069799244, 0.2796618938, -0.0273212325, -0.1986851543, 0.0649203137, 0.0978374556, -0.1528639495, -0.2789606452, 0.1998866647, 0.3830981553, -0.0846528038, 0.0627784878, -0.0174489859, -0.2503601015, -0.1159800068, -0.1022459418, 0.2740902901, 0.1589327902, 0.1906993687, -0.1759801805, 0.3185730577, -0.0207092650, 0.2241617143, -0.1156962067, -0.2576175928, 0.1581899375, -0.1559337676, 0.1371766180, -0.3160761595, -0.2568076849, -0.1531069875, -0.0026152066, -0.1496746391, -0.2187345624, -0.2343792617, 0.0211882181, 0.2702600062, -0.3030121624, 0.1228269637, 0.2454799712, -0.0361251645, -0.2199088186, 0.3285089433, -0.0664143637, -0.1696871817, -0.0818030611, -0.0000063947, -0.0706681386, -0.1893457174, 0.2127648890, -0.1799078733, -0.0000086062, -0.0953701064, 0.0344729088, -0.0991803482, 0.0072658663, -0.2182051688, 0.0749644116, -0.0000156474, 0.0800289363, -0.1410915107, 0.2892313302, 0.2892819345, 0.0055260379, 0.2010115683, -0.2628575265, 0.1907959729, 0.0637262985, 0.0863609165, 0.1807517856, 0.1443941295, -0.0844255090, 0.0333948061, -0.1700157821, -0.0321870930, 0.1933413148, -0.2969209552, -0.0176256821, -0.0474395491, -0.0580853857, -0.2198565751, -0.3128523231, 0.2071566731, -0.2253580242, -0.1675655693, 0.0291617177, 0.0714007989, -0.2445840538, -0.0627174750, -0.1813728958, -0.1276341975, -0.1319058686, 0.2240646183, -0.1816751361, 0.2192041725, -0.0313052088, 0.0178400949, -0.1854126602, 0.1131366193, -0.0553573035, 0.2805735469, -0.0495208614, 0.2418070138, 0.2602455616, -0.0707390830, -0.2010793984, 0.2546426952, -0.0012849321, 0.2083631009, -0.1605760455, -0.0528378859, 0.0253135897, 0.2920311391, 0.1635541022, 0.0326723196, -0.1663608104, 0.2220024467, -0.1364745796, -0.1319440007, -0.1220670268, -0.1712090075, 0.2014652193, -0.2175125480, 0.0586842448, 0.2175208926, -0.0407990217, -0.2336011678, -0.0015149539, -0.1884822398, -0.3014293015, 0.1161681041, -0.0609811842, 0.0747898519, -0.0579323396, -0.2684988678, 0.2613836229, -0.1254482865, 0.3306518793, -0.0466661118, -0.3122164309, 0.3608451486, 0.2054616362, 0.2473279834, 0.2130916268, -0.1038765535, -0.1208699495, 0.3006678820, -0.0326503515, 0.0377913788, 0.0095948074, -0.1714175642, 0.1072715372, 0.2820951939, -0.0211969130, -0.0182424579, 0.2935548723, 0.2365819663, -0.0698298439, 0.1300150752, 0.1612820923, -0.0135513153, -0.1163695455, -0.0930660591, 0.2886700332, -0.0313559882, -0.2134260684, -0.0907018408, -0.2763875127, -0.2047717124, -0.0415944457, -0.0834832937, -0.1396132857, 0.2443473190, -0.1681790203, 0.2161699384, -0.1780596375, 0.0362209938, 0.2649309635, 0.1251655370, -0.1654172093, -0.1080964953, -0.0435465239, 0.2587558329, -0.2892889678, -0.1649261266, 0.0786303058, 0.0455513857, 0.0709391013, -0.0810072944, 0.1981074661, 0.0794731304, 0.0599142388, -0.1380127668, -0.2043681294, 0.1325796694, 0.2287590653, 0.2013219595, -0.1815777421, 0.2439149916, -0.2441501319, -0.2729117274, 0.2590840459, 0.2309433371, -0.1925944984, -0.2030205876, 0.0759247765, -0.2498598546, 0.1288295835, 0.0052917134, 0.0720028505, 0.0843207166, -0.2958734632, -0.0618876554, -0.0442222245, -0.1078521237, 0.1174771935, 0.0427186750, 0.3194693029, -0.2118347734, -0.0673727170, 0.2191895992, -0.2647112608, 0.2085925341, 0.2332039326, -0.1683412939, -0.0476995446, 0.1553579271, 0.3321079910, 0.1333024651, 0.0393389426, 0.2274524271, -0.0313186049, -0.0714781284, 0.1850899905, -0.1024821848, -0.2332063615, 0.0266556144, 0.1354553550, -0.2228886187, 0.0997139290, -0.0587309599, -0.0253996439, -0.0023625218, -0.0000051377, 0.1770099252, -0.1492581069, -0.0361455902, 0.2552490830, 0.0661066845, 0.1533753723, -0.0000067101, 0.1370651871, -0.0965195522, 0.0276968852, 0.0138744321, 0.1312864572, -0.2417487800, 0.0790936053, 0.2696357071, -0.1488889754, -0.1881406754, -0.2543955445, 0.1678350568, -0.1037598103, 0.1645248234, -0.1582208127, -0.0159182232, -0.1675613970, -0.0547035784, -0.2667732835, 0.0404370390, 0.1245704740, 0.0341570042, 0.0897328332, 0.2081142217, -0.0000020387, -0.0910767838, 0.1285271943, -0.2763535082, 0.0539562479, -0.1670663357, 0.1513675749, 0.0242059603, 0.1191114336, 0.2630426884, -0.2442090511, 0.2731046081, 0.0124026882, 0.2884755135, 0.2993555963, -0.0945813730, 0.1038208157, -0.1965443343, 0.1323894709, -0.1825001687, 0.0017266347, 0.0009683074, -0.0410480760, -0.1021881700, 0.0524936467, 0.0833156556, -0.1967078745, -0.1287509352, 0.2676814497, 0.0943214223, -0.2673279643, 0.3433836997, -0.2890994847, -0.2136737704, 0.1958522946, 0.0550835580, 0.1461367458, -0.0755115971, 0.3050830066, 0.1690660566, -0.1391303390, 0.1448219419, -0.1193538979, 0.2752779722, -0.2928206623, 0.0611914322, -0.0445288979, -0.0517809950, 0.2620009780, 0.0050171283, -0.1539689749, -0.0016910218, -0.0838614851, 0.1218034029, 0.3617553413, -0.1278067231, -0.1547601819, 0.1087867618, -0.1106979996, -0.1384340078, 0.1046301201, 0.1165638790, -0.0564585626, 0.1421847641, -0.1597937793, -0.1164690778, 0.1268620938, 0.2590807080, -0.1887921840, -0.2028467506, 0.1880273968, -0.0000210617, 0.2267325819, 0.0515950695, 0.2013337165, -0.0149966031, -0.2607486844, 0.2373706996, 0.3011131585, 0.2725273669, 0.0353825912, -0.0251245648, -0.0344079919, -0.2097812444, -0.2468979806, -0.0315484144, 0.1353331953, -0.2157162577, -0.0053025088, 0.2263204753, 0.1001944393, 0.0472702757, 0.2882453203, -0.1096005961, 0.1606131047, -0.0684589446, -0.1664016545, -0.2240098417, -0.2080082148, 0.0855643675, 0.1946871430, 0.1146897599, -0.1630506516, -0.0030235969, -0.1065393388, -0.0851930827, 0.2625724673, -0.0288497694, -0.0115740234, -0.1589403003, -0.1780854911, -0.2766407728, -0.0915362909, -0.2290318161, -0.0748948082, -0.0623585582, -0.2412185818, 0.1242686883, -0.2644422948, 0.2690833211, 0.2789016664, -0.1785703301, 0.2278579921, -0.2440128624, 0.2942543030, -0.1790574640, 0.2766401470, -0.1023662761, -0.2909160852, -0.0640547350, -0.2262449563, 0.0040939273, -0.2441784441, -0.0898908451, -0.0474924184, -0.0058061965, 0.1051500440, -0.1854300201, -0.1481842548, -0.2404234707, -0.1591067165, 0.1162080616, 0.0702988878, -0.0720574185, 0.1787486374, 0.2537744939, -0.1240920871, -0.0127437348, 0.2192088813, 0.2354014665, 0.2594452500, 0.0826002881, -0.2187032551, -0.1293967664, 0.0400710478, 0.0654274747, -0.0878398791, -0.0475677326, 0.0233895183, 0.0673477724, 0.1828333884, -0.2221914828, 0.1473115087, -0.0728880689, 0.1343575716, 0.2037677169, -0.2283800095, -0.0289841872, -0.2478006482, -0.0529236905, 0.2460534424, -0.1325194091, -0.2392711043, -0.1201700643, -0.1035636514, -0.2243815064, 0.1807188243, 0.0475047156, 0.0884051323, 0.1988192201, -0.0196940824, 0.2290875912, 0.1885904819, 0.0058899471, -0.2405987978, 0.0906792358, 0.1058231220, -0.0245300755, 0.0535873324, -0.1176260412, -0.2250594795, -0.0551708527, 0.0133056799, -0.2081275433, 0.2983803749, 0.2318857461, -0.1919126660, 0.2339810729, 0.2799061835, 0.0703305453, -0.1069831923, 0.2520803809, 0.0521121807, 0.0408220999, -0.0013423802, -0.1502136737, -0.2410999835, -0.2008524090, -0.2339496017, 0.1806469858, 0.1963798553, 0.3270873427, -0.2965738177, -0.1752743274, 0.0951623768, -0.1509672999, 0.2103870958, -0.2128993124, 0.0744811147, -0.3141574264, -0.1455442309, 0.0078864815, 0.2031930387, 0.3487882018, -0.1603495926, -0.0084320074, 0.1158604771, 0.1730268002, 0.1779395342, -0.1028977260, 0.3476830423, 0.2448670268, 0.0510047302, -0.1595207006, 0.0790691450, 0.0661122799, 0.1979859471, -0.0725690648, -0.2694902718, -0.0753161237, 0.2166274339, 0.1141880155, -0.0080537749, -0.0689877570, -0.2780339122, 0.0235690437, 0.1329839528, -0.0017406606, 0.0308054462, 0.0905500501, -0.0033643681, -0.2654569447, -0.0928411111, 0.1409566104, -0.2374016196, 0.0934219137, 0.2131876945, 0.0687461644, 0.1084860787, -0.2678346932, 0.0051677297, 0.3004400432, 0.0752265900, 0.0387957431, 0.1032961756, -0.0012289111, -0.0339292213, -0.1938537210, 0.1997159123, 0.1241849810, -0.2207048833, 0.2171481699, -0.2784483731, 0.1343593746, -0.3232137561, -0.2030537874, -0.2529920340, 0.1264402419, -0.0442324691, -0.0223372858, 0.2688811421, -0.1530350745, -0.0515739061, 0.1479727626, 0.1435621977, -0.0814452693, 0.1428164095, 0.2067547441, 0.2192121148, 0.2383156121, 0.1679780334, 0.1377455592, -0.0898232162, 0.0541157983, 0.0326992683, -0.2548061311, 0.1165464818, -0.0445748866, 0.2006699145, -0.0159177687, 0.2779899240, 0.2645756900, -0.0422533303, -0.1931223720, -0.0082828356, -0.0267527234, -0.1397902817, 0.1105115712, -0.2155557126, 0.1756154448, 0.2305657417, 0.0087913312, 0.2609907091, 0.1183451265, 0.3100956976, -0.0321612693, -0.0380418152, -0.1087795272, 0.1685264558, -0.1152715161, 0.1781432778, 0.2735251784, -0.1794499010, 0.1193364337, 0.1043455601, -0.0977899283, 0.0608123243, -0.2003936023, -0.0135596348, -0.1347356886, 0.1337360442, 0.0577669591, 0.1376336068, 0.2176917791, -0.0196954962, 0.2877407074, 0.0056395819, -0.0447175056, 0.0982582644, 0.3209467530, -0.1630950421, -0.0881474242, 0.3065472543, 0.0580751449, 0.3154132366, -0.2481918633, 0.1550656855, -0.0561951697, 0.1734190583, -0.1535834819, 0.1582456827, -0.0805498585, 0.0206818562, -0.2243629247, -0.2407379746, 0.0266406797, -0.2669721842, -0.1411252022, -0.0078669004, -0.0000182462, -0.2460026890, 0.1228406355, -0.1933422685, -0.2233481854, -0.1056539118, 0.1613171399, -0.2470158190, 0.1824174672, -0.1307200789, -0.0952447280, 0.1873030216, -0.1826909184, -0.0873059705, 0.0430205464, 0.0664554313, 0.0932758972, 0.2483683378, -0.1691209376, -0.0468211100, 0.0480772778, 0.2144554555, -0.2980992496, -0.0068252976, 0.1713292152, -0.0026066047, -0.2617665231, -0.0205512177, -0.2293060571, 0.0197508242, 0.1183992252, 0.1866590381, -0.0000019400, -0.0242354944, 0.1589920670, -0.1386306584, 0.2857549191, 0.1604421288, -0.2044271827, 0.0478717424, -0.0547155552, 0.0202883277, -0.2371094227, -0.1168617010, 0.2948782742, 0.0178049486, -0.0795673802, -0.1053306684, 0.1538440436, -0.1042455956, -0.1085633337, -0.1646362245, -0.1633067131, 0.2727727294, -0.1864143014, 0.1314575225, -0.1003373265, 0.2575178146, 0.1049178615, 0.3302032650, 0.2335591912, -0.1692672670, 0.1141366810, -0.0200275928, 0.1480842978, -0.0916852951, -0.2123012692, 0.1607491821, -0.1753576696, 0.1822478026, -0.2504695654, 0.0535183884, -0.0509505346, -0.2184240371, 0.0021541803, 0.0772745162, 0.1867992282, -0.2983950078, -0.1609615684, 0.3816683590, -0.0498445854, 0.1198299676, 0.3344136178, -0.2581180334, 0.2495014518, -0.2449510992, 0.0215738807, -0.1746622920, -0.1733799279, 0.0287189875, -0.0052316980, 0.0281070061, 0.2651185095, 0.0910947546, -0.2353936732, 0.0541477986, -0.0396056101, -0.2146937847, 0.2177345902, -0.0115435030, -0.2929162383, -0.3027286232, 0.0401508287, -0.1752972901, -0.0027917509, 0.2087476104, 0.2669119239, -0.0443640463, 0.1590350866, -0.1603471190, 0.0318992920, -0.1880468130, 0.0488563552, -0.0587367527, 0.2915095091, 0.1561284214, -0.1200857610, -0.1125276908, 0.1707403660, 0.2757380903, -0.0577076785, 0.0436532013, 0.1374014318, 0.2657355368, 0.3105885088, 0.2611854374, -0.1166429445, -0.0942818224, -0.0000003643, 0.1878872067, -0.1089930460, 0.1144777238, -0.0606004521, -0.1856802404, -0.0182203595, 0.2692600191, -0.1802039891, 0.2106998712, -0.2000798136, -0.0830019787, -0.2288753092, 0.1322752088, 0.2395755500, 0.2910328507, -0.0506040528, -0.1322231293, 0.3376252651, -0.1402538121, 0.2736833990, 0.2700704634, 0.0157071911, -0.2967291474, -0.0991523489, 0.0846437067, 0.2204656452, 0.1747527719, -0.1841476709, -0.2337276638, 0.0007915340, 0.0421525985, -0.1764082760, -0.2720848620, 0.1187493205, 0.1817803085, 0.1452134848, -0.1324263662, 0.0041381414, -0.0000093202, -0.0247750469, -0.2039009929, 0.2664813697, -0.1285436302, -0.1043258607, 0.0611471981, -0.1506762058, 0.1104409546, -0.1193829924, 0.2814252377, 0.1813309044};
#endif

#endif
