//Numpy array shape [16, 32]
//Min -0.474659949541
//Max 0.504835844040
//Number of zeros 0

#ifndef W5_H_
#define W5_H_

#ifndef __SYNTHESIS__
model_default_t w5[512];
#else
model_default_t w5[512] = {0.2881755531, -0.3985415697, -0.1789838970, -0.2004993111, 0.1138847992, 0.0454025827, -0.0874348357, 0.4448481202, -0.1188066006, -0.2348075360, 0.0785400718, 0.4738251567, 0.2085791230, 0.3287385106, -0.1682872772, 0.2982036471, -0.4415580332, -0.3042325675, -0.3457169235, 0.2457751632, 0.2830829918, -0.0043037357, 0.2513328791, -0.2141973823, -0.1228282154, 0.1217100322, -0.1869358122, 0.1918159574, 0.3742642999, 0.5048358440, 0.0086462423, 0.4234666228, 0.3785322309, -0.2056524754, -0.1110302061, -0.0788538679, -0.0858561248, 0.3849571943, -0.1661665738, -0.1232033372, 0.1023831666, -0.3746053576, 0.3155687749, -0.3367820084, 0.2653705776, 0.1380586028, -0.1063600034, 0.2334847897, 0.3926572204, -0.1735817343, -0.2014713287, 0.1437121779, 0.3003022075, 0.0893353745, 0.3592698574, 0.2100586295, 0.3012967706, 0.0609575696, 0.3682260513, -0.0476032048, -0.3055813313, 0.1994614452, -0.1429506093, 0.1225455105, 0.3286606669, -0.3211456239, 0.0576529019, -0.0523331799, 0.4646784365, -0.0706482157, 0.2476333976, 0.0810755417, -0.3082037270, 0.3269625306, -0.1555916965, -0.1463950723, -0.4168388844, 0.3829628527, -0.2647029161, -0.3187768161, -0.0005428109, -0.2169854939, -0.1589679718, 0.2830411792, 0.3590906858, 0.0909527466, 0.0914459303, 0.0624963678, -0.2835856676, 0.2707414031, 0.1964695454, 0.1921133697, 0.0252137110, 0.3984048069, 0.2193470150, 0.2513074279, -0.0688171908, -0.0000204765, 0.0239938200, -0.1536992490, -0.1162915453, -0.0393248200, 0.2678358257, -0.3438696265, 0.0000075622, -0.1095781177, 0.0000166895, 0.4199622273, 0.0000350707, -0.2904325426, -0.0000048054, -0.0429826975, 0.0418503881, -0.1997796595, -0.0217353012, -0.3217469752, -0.0000015861, 0.2284246832, 0.0000040058, -0.0000066474, -0.3909657001, 0.1174985990, -0.0903207436, -0.2865683734, 0.1105233058, -0.2029541731, 0.3599044979, -0.1099668890, -0.1001652777, 0.3793162704, 0.0008857140, 0.3311281204, 0.0496171191, 0.2121783197, 0.1455001831, 0.2972869277, 0.0000070949, 0.2287303656, -0.1030664891, -0.2754876316, 0.0948796123, 0.1060287207, -0.2590074539, -0.1094962358, 0.0000003747, -0.2816439569, -0.1893750429, -0.0514709018, -0.2848051488, -0.3710087240, -0.1263869554, -0.0860184729, -0.3845216632, 0.3389758468, 0.1299789548, 0.0240694527, 0.3040467501, -0.1464797854, 0.0025628572, -0.2510998249, -0.0463278294, 0.1464454830, 0.3312700093, 0.3165509701, 0.3816350102, 0.4760328233, -0.0207300596, -0.2921997905, 0.0321749300, -0.1186491475, 0.0929352269, -0.3202521503, -0.0777805373, 0.0355269462, 0.0562104583, 0.0037621844, -0.1116681024, 0.2212183923, 0.4135541618, 0.2898323238, 0.0860879645, -0.2827206850, 0.2240537107, -0.1141401082, 0.1797982603, -0.0114088310, -0.2526182234, 0.2265131772, -0.2529733479, -0.3217988610, -0.2609463632, -0.3528239727, -0.0162890702, 0.0823022649, 0.2166087180, 0.1673823893, 0.0713341460, -0.0704772174, 0.3875764906, 0.4269250035, -0.1805982441, 0.1631260961, 0.0922200754, -0.0010939084, -0.4254559577, -0.4144653976, -0.2780341506, 0.1774235219, 0.3168032765, -0.2319059819, -0.3250536919, -0.2263241708, 0.1330461204, 0.2705397308, -0.2700053155, -0.1308236867, 0.0749907866, -0.2264625132, -0.2253095508, -0.3839834034, 0.3258489072, -0.0645766482, -0.3900009990, -0.0483169146, -0.0150249312, 0.2740902901, 0.1091106161, 0.0766999722, 0.0754188374, -0.3389255404, -0.3550054133, 0.1148472652, 0.0313258506, 0.1089163646, -0.3664949834, 0.3682585061, 0.4240664244, 0.3001531065, 0.1608731896, -0.3451873362, 0.0781831145, 0.0777429715, 0.3997999430, 0.3314987123, -0.1283031851, 0.3410440683, 0.0854881629, -0.2196234465, -0.0982918069, 0.3909509480, 0.3208216429, -0.3530718386, -0.3069505990, 0.2824251354, 0.3093185723, 0.3328277469, 0.3474056721, -0.2874219716, -0.1282898039, 0.4959460199, 0.3193572462, 0.1218693480, 0.1226496473, 0.5041024089, 0.2945424616, -0.3968743384, 0.3213704526, -0.2795079052, 0.1336031258, 0.0397484191, 0.0686894432, -0.4026960433, -0.2940970659, 0.2746926844, -0.1832366139, -0.1193611547, -0.0372479968, 0.1518920660, 0.4793850482, -0.2640390694, 0.4475826323, 0.1669535637, 0.2021065652, 0.0569431707, -0.1857445091, 0.2077595443, 0.2808466256, 0.2266580313, -0.3727090061, 0.0916993991, -0.1452027708, 0.4085455835, -0.2806811333, 0.0377626941, 0.3261185884, -0.0906263292, -0.2556561530, 0.4309026599, -0.1097353473, 0.1999339610, 0.0207732022, -0.1290277243, 0.0096850749, -0.2620455325, -0.1618967652, 0.1643377841, 0.1400581449, 0.0943639800, -0.1022936627, 0.0612132363, -0.0402117893, 0.4036467969, 0.2968077362, 0.3292552233, -0.1740269810, 0.2455334663, 0.3814244568, 0.2243735939, 0.1990597695, -0.0912160128, 0.3514254689, -0.0995677114, -0.1177148297, -0.0241265111, 0.4244878292, -0.2972540557, -0.2247143686, 0.3590593040, -0.3833905160, -0.0424892940, 0.4586983025, 0.2383508235, -0.3722785413, -0.3048492670, -0.1094321460, -0.2583184242, -0.0876557454, 0.2098399699, 0.3709639311, -0.1627215594, -0.3512906134, 0.1805571467, -0.3415426910, -0.2973131537, -0.0004665808, -0.3872695863, 0.2770462334, -0.0660486594, 0.2413904220, -0.0128548602, -0.2479736358, -0.1367520690, -0.1290246099, -0.3458822370, -0.0000205879, -0.3415775597, 0.3092184067, 0.0000174020, -0.0028668086, -0.0265179034, 0.0878432691, -0.1842034161, -0.2942596078, -0.1092862412, -0.0000047635, -0.0552321523, 0.0000014906, -0.0000008223, -0.2231447399, 0.2299033850, 0.2649538219, 0.0690736026, 0.0000137055, -0.1171823889, 0.0000022998, 0.1220442057, -0.0361070670, 0.0000032483, 0.2614372969, 0.1467429996, -0.3632623851, -0.0050979983, 0.0000168059, 0.1250710934, -0.4746599495, 0.0268768016, -0.0483144745, -0.2856393158, -0.0774297193, 0.1329238117, -0.3323526978, -0.1353522837, -0.0904857218, -0.0583100729, 0.2125689536, 0.1700539589, 0.3810738027, 0.2665546536, -0.1662763655, 0.0804749131, -0.2995658517, -0.1758150756, -0.2557602227, 0.1913846582, -0.4371767938, 0.4061685205, 0.3441962898, -0.2183668315, 0.4529308975, -0.3118920326, -0.0488996282, -0.4048981965, 0.2756633461, 0.1560915411, -0.3205929995, 0.1531528831, -0.2855756581, 0.2862871289, 0.2201867700, -0.0040482357, -0.0587296486, -0.1471835822, 0.2523105741, 0.4888904989, 0.0891390964, 0.4431421459, 0.2634554207, -0.2020083219, -0.1042320877, -0.0484223664, 0.2469684482, 0.3164525032, 0.3118954897, 0.3364008367, -0.4222370982, -0.3880706131, 0.3203001320, -0.1414655596, 0.2949810326, 0.1113262996, 0.3212072551, 0.1882641762, 0.0007186377, -0.0909524858, -0.1560543180, -0.0320219100, 0.2558957636, -0.1281772107, 0.0095267314, 0.2262286693, 0.2693559527, -0.2108981460, -0.3495643139, -0.0000006902, 0.0000028968, 0.3000795543, -0.0422360301, -0.0357130058, -0.0034796223, 0.0849144012, 0.0351863429, 0.0000007898, -0.0000213387, 0.0012237891, -0.2740983367, -0.0000127381, 0.1967474669, -0.1013026834, -0.2864008546, 0.0977789164, 0.3199376166, -0.0970635042, 0.0012153062, -0.2515615225, 0.2293774337, 0.0000409921, 0.2022612393, -0.2524982393, 0.0000005801, -0.1924634278, -0.2321463972, 0.1957102269, 0.1036804095, 0.1471438259, 0.2152312100, 0.3029150069, 0.3207769990, -0.0820816383, 0.0020319035, -0.3199746013, 0.2856239080, 0.4617075026, -0.1102658659, -0.2274390161, -0.1817263365, -0.0404141694, 0.0647793785, -0.3527248502, -0.1410796940, 0.3429280221, 0.3977283537, -0.1035858765, -0.0601180047, 0.3507881165, 0.0609543025, -0.2318935692, -0.3521861434, -0.2559238076, 0.2629258633, 0.2177690566, 0.0093259644, 0.2211815268};
#endif

#endif
