//Numpy array shape [3, 3, 32, 64]
//Min -0.267270714045
//Max 0.348773628473
//Number of zeros 0

#ifndef W4_H_
#define W4_H_

#ifndef __SYNTHESIS__
model_default_t w4[18432];
#else
model_default_t w4[18432] = {0.0860157013, -0.0257899258, 0.0011631339, -0.0168168712, -0.0498211794, -0.0279188864, 0.0433406644, -0.0092544528, 0.0574363545, -0.0157724526, 0.0773895085, -0.0435365289, -0.0226507448, 0.0262741353, -0.0295492951, -0.0562829264, 0.0548381992, -0.0413924754, 0.0163788386, 0.0124167148, 0.0639846399, 0.0667181835, -0.0621490069, -0.0721624941, 0.0520898290, -0.0198766906, -0.0173791237, -0.0627343729, -0.0145584270, -0.0800706670, -0.0431209914, 0.0491402000, 0.0211852472, 0.0178572349, 0.0791759193, -0.0965807289, -0.0744802952, -0.0404739417, -0.0503597669, 0.0159383118, -0.0830311328, -0.0726216957, -0.0193259995, -0.0048832991, -0.0023645279, -0.0830779672, -0.0444623008, 0.0135188429, 0.0497473516, -0.0239574332, -0.0611356236, 0.0494882837, -0.0736201853, 0.0744395033, 0.0301243775, 0.1612578332, -0.0549893305, 0.0504510738, -0.0932723358, 0.0447293222, -0.0626686513, -0.0173997674, 0.0777221546, 0.0484018326, -0.0653391480, 0.0545823462, -0.0156555790, 0.0603951477, 0.0640910491, -0.0622359999, 0.0130522195, 0.0044445107, 0.0401126258, 0.0513951816, -0.0458903797, -0.0140775442, 0.0202848054, 0.0507848226, 0.0412574261, -0.0569642670, 0.0248942468, 0.0048473952, 0.0968170911, -0.0167976003, -0.0532222390, 0.0691299140, 0.0999278352, -0.0198224820, 0.0720741227, 0.2161708176, -0.0689480156, -0.0517989472, 0.0701391473, 0.0597336106, -0.0392991006, 0.0151358340, -0.0027511967, -0.0288354475, 0.0566088744, 0.0338984095, -0.0273126625, -0.0474667996, 0.0335964784, 0.0449085869, 0.0051720287, 0.0898312181, 0.0279084891, -0.0044872216, -0.0219053347, -0.0134005221, 0.1135260388, 0.0436382368, 0.0573966317, 0.0244527478, 0.0861732066, 0.0167757627, 0.0630410537, 0.0005005095, -0.0399364531, -0.0528120548, 0.0405809879, 0.0530487970, -0.0748403221, -0.0138094835, -0.0628594309, -0.0383986644, -0.0097717149, 0.0513468310, 0.0452893600, 0.0814085528, 0.0368161723, 0.0353308767, 0.0552995875, 0.0197375454, 0.0008575897, -0.0396556035, 0.0657150149, 0.0412914455, 0.0693103075, -0.0445924439, 0.0108323218, -0.0361875147, 0.0359944031, 0.0076126242, -0.0337057002, 0.0520750768, -0.0831912160, -0.0671955571, 0.0619048029, -0.0290733743, -0.0798895210, -0.0467318557, -0.0487508439, 0.1456271857, 0.0581414029, -0.0258269403, -0.0309687778, 0.0704616085, 0.0759145990, 0.0711417869, 0.0922745392, -0.0475256443, 0.0260229912, -0.0717565119, -0.0641791821, -0.0003637129, 0.0130217122, -0.0074022873, -0.0410570502, 0.0027957621, -0.0163186472, 0.0326506011, 0.0756978914, -0.0589753427, 0.0238652024, 0.0085271318, 0.0119208191, -0.0855234936, 0.0222899932, -0.1009769961, 0.0475619845, 0.0097814547, 0.0238226149, 0.0062505696, 0.0939939767, -0.0637613684, -0.0903103724, -0.0799237713, 0.0650831237, 0.0264940802, -0.0685380921, 0.0970244184, -0.0504764952, -0.0758834779, -0.0658501238, 0.0481235869, 0.0264046174, 0.0617870092, 0.0297635384, -0.0425734520, 0.1190311983, -0.0694402829, 0.0251444019, 0.0668223873, -0.1024811268, -0.0725344867, 0.0157730021, -0.0174016524, -0.0179545972, 0.0031074847, -0.0072050337, 0.0307703223, -0.0713104457, 0.0472656749, -0.0402075462, 0.0313663110, -0.0551599525, 0.0410037152, -0.0455070212, 0.0348745547, 0.0554362684, 0.0098044202, 0.0634991303, 0.0445078723, -0.0566994548, -0.0499763079, 0.0240682010, -0.0101686427, 0.0316372439, 0.0317806117, 0.0073297261, 0.0694594309, -0.0323455967, -0.0684799477, 0.0166411418, -0.0109590450, -0.0080698300, 0.0431208611, 0.0578598604, -0.0515131801, -0.0815921426, -0.0894859135, 0.0494599491, -0.0761682913, -0.0641401634, -0.0349003412, -0.0957675129, 0.0920700133, 0.0821021125, 0.0046780254, -0.0395087786, -0.0560056381, -0.0543571934, -0.0005419541, 0.0538986810, -0.0247389413, -0.0452811085, 0.0866591781, 0.0993723869, -0.0130190179, 0.0721445531, -0.0179425832, 0.0331433639, 0.0708962604, 0.0220962595, -0.0017505942, 0.0040043369, 0.0772485435, 0.0109676206, 0.1143718585, -0.0139499586, 0.0586785749, 0.0438106880, 0.0284714755, 0.0532381199, -0.0713842586, 0.0825240985, 0.0225621723, 0.0976665914, -0.0831779167, 0.0357566252, 0.1820349246, 0.0611270517, -0.0395126045, 0.1009119079, 0.0137237916, 0.0019066194, 0.1018485203, -0.0321751758, 0.0072331545, 0.0885200799, -0.0199668482, -0.0482501499, 0.0697932839, -0.0076848110, -0.0146303121, 0.0460574292, 0.0948458463, 0.0848959088, 0.0597880781, -0.0204494763, 0.0362217538, 0.1107130572, 0.0690236390, 0.0025780145, 0.0051443889, 0.1071496531, 0.0340882950, 0.0347731076, 0.0627515540, 0.0368511267, -0.0306367371, 0.0300826803, 0.0086251488, 0.0280171353, -0.0025318163, 0.0381397009, 0.0830886215, 0.0027507069, -0.0471079238, 0.1008786112, -0.0215431768, 0.0487156250, -0.0078199785, 0.1162879020, 0.0266525131, 0.0134045193, -0.0428859480, -0.0891550109, -0.0083260005, -0.1031598151, -0.0017667963, 0.1142419353, -0.0223588832, 0.0595993735, -0.0539775938, 0.0907000750, 0.0078556268, 0.0894743502, -0.0530689731, -0.0129110171, 0.1065176204, 0.0195249934, 0.0715643615, 0.0534666739, 0.1053943709, 0.0752322450, -0.0173140429, 0.0581986457, -0.0328155309, 0.0012433890, 0.0402801111, -0.0254698135, -0.0009229916, 0.0626185387, -0.0257984996, 0.0804433972, 0.0005069840, 0.0901800245, 0.0151792020, 0.0742884502, -0.0529898368, 0.0350491740, -0.0042104553, -0.0320868082, -0.0196264032, -0.0665642917, 0.0311175101, 0.0158660766, -0.0138818463, -0.0259686355, 0.1312600225, -0.0998057649, -0.0454939716, -0.0162471365, -0.1026526764, 0.0398124792, -0.0050789705, 0.0534972176, 0.0246586706, -0.1249316558, 0.1062456593, 0.1026472375, -0.0364471488, 0.0663425326, 0.0902652144, -0.0036861724, 0.0343696512, 0.0463127457, -0.0336193331, -0.0161889214, -0.0354039706, -0.0599474087, -0.0013318090, -0.0235186443, -0.0116741732, -0.0190018099, 0.0296772532, -0.0258740354, 0.0757473558, 0.1095737368, 0.0047942759, -0.0033055479, 0.0286104344, 0.0621879399, 0.0303332470, 0.0357843339, -0.0155564211, 0.0880724192, 0.1938830763, 0.0126779741, -0.0243229959, -0.0094550224, 0.0411445461, 0.0548084080, 0.1003441140, 0.0238919929, 0.0723342597, 0.0216276571, 0.0172980744, -0.0086286049, -0.0120473681, -0.0435972102, -0.0139905997, 0.0885484517, 0.1068422720, 0.0510005094, 0.0795354098, 0.0466078706, -0.0265518837, 0.1268358678, 0.0144465351, 0.0792999119, 0.0454765595, 0.0619337782, 0.0459639952, 0.0279910788, 0.1131746247, 0.0294149835, 0.0006231058, 0.0961975530, 0.0154215395, 0.0159912910, 0.1002835408, -0.0100349113, -0.0296721496, 0.0628162250, -0.0165768620, 0.0518059470, 0.0154500520, 0.0322255865, -0.0040484569, -0.0363428444, -0.0452484339, 0.0011190308, 0.0461235866, 0.0877600387, 0.0722757950, -0.0816407949, 0.1094469503, -0.0045426595, -0.0520847961, -0.0256613959, -0.0414071083, -0.0438996777, -0.0648547560, 0.0640463680, 0.0034245974, 0.0470712222, 0.0919259414, -0.0073093344, -0.0745356157, -0.0226619001, 0.1795635670, -0.0187920742, 0.1035834327, -0.0098388474, 0.0389597751, 0.0030690471, 0.0561373271, -0.0083258264, 0.0627307519, -0.0484726019, -0.0114638545, -0.0193416215, 0.0445778668, 0.0525783747, -0.0111821359, 0.0545581654, 0.0032680521, 0.0967503637, 0.0989160761, 0.0187305361, 0.0607758574, 0.0765658617, -0.0065183300, 0.0946967974, 0.0482427776, 0.0056654271, -0.0980513096, 0.0762191415, 0.0235724486, 0.0586564727, 0.2115474343, 0.0612963177, 0.0315505564, -0.0904210210, 0.0569392145, 0.0650637373, 0.0565220714, 0.0699662343, -0.0276501179, 0.0213596933, 0.0125646703, 0.0490614846, 0.0375939123, 0.0048157019, 0.0907582119, -0.0595099553, 0.1274576932, -0.0368803181, 0.0585269220, -0.0097896820, 0.1095415726, 0.1052926853, 0.0207287502, -0.0231524613, -0.0284576081, 0.1075329930, 0.0663342103, 0.1140180007, 0.0756747946, 0.0599485040, 0.0122253830, 0.0147727793, -0.0464414693, 0.0324609168, 0.1965427101, 0.0677054748, 0.0284016617, 0.0441422425, 0.1107440367, 0.0988081172, 0.0880568102, 0.0669201761, 0.0058704326, -0.0261268280, -0.0730621740, -0.0099739758, -0.0312834643, -0.0422363803, 0.0527778789, 0.1209765449, 0.0292169433, 0.0645010248, 0.0639230534, -0.0117429849, 0.0790367350, -0.0033833408, 0.1630844772, -0.0153128654, -0.0174597874, 0.0674330890, 0.2065185606, -0.0549355149, 0.0267379638, 0.1143169329, 0.0557459444, 0.0837122574, -0.0274581406, 0.0425394103, 0.0718793049, -0.1415135562, 0.1524542868, 0.0139036262, -0.0265353546, 0.0048713041, 0.0394994430, -0.0215719454, -0.0140726175, 0.0231428836, 0.0504428446, -0.1356090158, 0.1172896847, 0.0090028755, 0.0709922910, -0.0025735449, -0.0141289113, 0.0539851338, 0.1107466891, -0.0343898684, -0.0580474436, 0.0448393412, 0.0991815403, 0.0980257541, -0.0670924485, -0.0384706780, 0.0813241154, 0.0169734824, 0.0076713851, 0.1045585200, 0.1875817329, -0.0208260790, 0.0313924924, -0.0324612632, -0.0148762260, 0.0308114011, -0.0370670184, -0.0400305241, -0.0528644435, -0.0002227063, 0.0403970890, 0.0961023569, 0.0411210172, 0.0852437615, -0.0042161662, 0.0034161042, -0.0212229807, 0.0334645584, 0.0046141022, -0.0468140282, 0.0107730711, 0.1018235087, 0.0161887407, -0.0283620600, 0.0549678355, 0.0582457744, 0.1723363847, 0.0422583707, -0.0542144105, 0.0795197263, -0.0931411535, 0.0918602571, 0.0045349165, -0.0286738705, 0.0125250397, -0.1455765218, 0.0503086932, -0.0336508714, 0.0768327862, 0.0533670001, -0.0511437766, 0.0276681650, -0.0353214964, 0.0313778333, 0.0076384307, 0.0018657801, 0.0257096943, 0.0419969931, 0.0059364019, -0.0363730527, 0.0727134123, 0.0450777262, 0.0506805629, -0.0056634746, 0.0322210342, 0.0000762772, -0.0413728729, 0.0755176246, 0.0021756419, -0.0084198629, 0.0304082204, 0.0503615253, -0.0193556529, 0.1245545968, 0.0926021487, -0.0693027973, -0.0222672559, -0.0150327086, 0.0817454085, 0.0732597783, 0.0088048577, 0.0421347469, 0.0563552342, 0.0209455770, 0.0011165842, -0.0451701432, -0.0934153199, 0.0187408254, 0.0236694925, -0.0325325876, 0.0251722578, 0.0725224763, -0.0021354067, 0.1326753795, 0.0691245422, 0.0282470323, 0.0858156905, 0.0388796143, 0.0536593609, 0.0740620568, -0.0162927080, 0.0511748977, 0.0424334183, -0.0433307700, -0.0923645794, 0.0721070170, 0.0311330520, -0.0956069976, 0.0507519729, 0.0954828709, 0.0710964501, 0.0676486194, 0.0874007195, 0.0560956076, 0.0241391249, -0.0520282052, -0.0181881897, -0.0054921918, -0.0832020119, -0.0034824973, 0.0549034178, 0.0637339726, 0.0200274996, -0.1073795781, -0.0952138379, 0.1204245612, -0.0813634470, -0.0259678774, 0.0156264938, 0.0824984536, 0.0179290511, 0.0650476515, -0.0835279003, 0.0087929303, 0.0346385650, 0.0080782454, 0.0185213871, -0.0622956119, 0.0330125019, -0.0810584500, 0.0319993608, 0.0730605274, 0.0524089970, 0.0270986725, -0.0327123851, 0.1004294455, 0.0414709151, 0.0984031856, -0.0280791707, -0.0230103210, -0.0826768950, 0.0974562392, -0.0809362605, 0.0622940697, 0.0822822526, 0.0300126337, 0.0766761526, 0.0834293142, 0.0845688432, 0.0979546085, 0.0463912375, -0.0620887689, 0.0695939362, -0.0147307971, -0.0145228803, -0.0020987266, 0.0787649304, 0.0669582263, -0.0380881652, 0.0278148465, 0.0514304526, -0.0956406742, -0.1083669811, -0.0138870943, 0.0240201391, -0.0470085554, 0.1045729890, 0.0612048060, 0.0243639797, -0.0886763707, -0.0310953092, -0.0639524609, 0.0498959608, -0.0096615544, -0.1012880653, -0.0775738284, 0.0372861885, -0.0625130683, 0.0305805597, -0.0894984752, -0.0504373275, 0.0572083257, -0.0388552658, -0.0484054983, 0.0618165955, -0.0415531732, -0.0498887040, 0.0699416175, -0.0567063913, 0.0048998203, 0.0338552967, 0.0109943710, 0.1017461419, 0.0558686405, -0.0224671904, -0.0350803658, 0.0798453316, 0.0045759929, 0.0864666924, 0.0707012713, -0.0230949428, 0.0682573915, 0.0439731963, 0.0878985450, 0.0163732152, -0.0040039225, -0.0081390329, 0.0262852069, 0.0591673329, -0.0503861532, 0.0809932277, 0.0234962720, 0.0546438508, 0.1048575938, -0.0899968445, 0.0235246178, -0.0446582437, 0.0606815666, 0.1085024700, -0.0567521676, 0.0183330942, -0.0467787273, -0.0118146790, 0.0133020217, 0.0697915107, 0.0467051566, -0.0288854744, 0.0853217542, -0.0157094803, 0.0273055695, -0.0655149147, 0.0461222343, 0.0440141149, -0.0671956241, -0.0638812557, -0.0521728210, -0.0678829253, 0.0279387720, 0.0323230326, 0.0534753948, 0.0480553135, 0.0443049222, -0.1100664437, 0.0103433374, -0.0486464314, 0.0804149583, -0.0013526202, 0.0681438521, 0.0061759078, -0.1096761897, 0.0258189980, -0.0524968207, -0.0856841356, -0.0832375661, -0.0172329042, -0.0921713784, -0.0557481125, -0.0033850854, 0.0038992043, 0.0108147478, 0.0621542893, -0.0619785935, -0.0266788974, -0.0069216574, 0.0419966951, -0.0563643128, -0.0173222292, -0.0426080003, -0.0810897350, -0.0432745814, -0.0778803229, 0.0088067055, -0.0346860215, -0.0609893873, 0.0040917755, -0.0731170401, 0.0564269386, 0.0730938837, -0.1034685001, 0.0250340160, -0.0947611406, 0.0320480280, -0.0300622769, 0.0282349978, -0.1016104817, -0.0429465696, 0.0492542051, 0.0367968865, 0.0571823828, -0.0448730551, -0.1106856242, 0.0453565307, -0.0777313709, -0.0273148734, -0.0509297103, 0.0378531925, -0.0467118360, 0.0684195384, -0.0235754233, 0.0789713413, 0.0943834931, 0.0088194646, -0.0540180206, 0.1031045467, 0.0257849954, -0.0912696123, 0.0633911416, 0.0762869269, -0.0226568524, -0.0183396749, -0.0040453030, 0.0170715638, -0.0077126920, 0.1058976129, 0.0083534420, 0.0886196122, 0.0378490798, -0.0501564592, -0.0688014999, 0.0381290279, 0.0892724991, 0.0210577454, 0.0526757613, 0.0054457989, 0.0025238045, -0.0209667720, 0.0105827563, 0.0726743639, 0.0868958160, 0.0901967660, 0.0025634877, 0.0196736772, 0.0191420708, 0.0803208798, 0.0105776489, -0.0007446375, -0.0219626334, 0.0668985322, 0.0994269773, 0.0269909445, 0.0306747556, 0.0672026575, 0.0295202862, 0.0639952421, 0.0332745798, 0.0850640088, 0.0674610734, 0.0339419171, -0.0034390469, -0.0048291376, -0.0815657303, -0.0220280737, -0.0210366230, 0.0424291752, 0.0226533115, 0.0647556931, 0.0947534591, 0.0312781297, -0.0224800538, 0.0135856448, 0.0304487310, 0.0029399972, 0.0056038005, -0.0241102781, -0.0391741470, -0.0423693508, -0.0316982530, -0.0083808349, 0.0344521515, -0.0329128057, -0.0187853556, 0.0653639510, 0.0272621363, 0.0391552746, -0.0141956098, 0.0443695188, 0.0110627748, -0.0183995496, -0.0506356172, 0.0309263766, -0.0437535234, 0.0350470692, -0.0871125087, -0.0437686667, -0.0217348356, -0.0716283321, 0.0632215515, 0.0512347557, -0.0466537662, -0.0222852230, 0.0230390728, -0.0084741591, 0.0488491133, -0.0528944135, 0.0359893814, -0.0265842080, -0.0205576941, 0.0327072777, 0.0438908003, 0.0677611530, -0.0529214069, -0.0321360119, 0.0413965695, 0.0201174188, -0.0376226194, 0.0267298929, 0.0755806491, 0.0158061758, 0.0428933613, -0.0528481118, 0.0605832413, 0.0372095779, -0.0170748588, -0.0624110512, 0.0244660862, -0.0018221134, 0.0800074637, 0.0615212917, -0.0904878080, -0.1099975705, -0.0440678783, -0.0411565974, -0.0035363715, 0.0423077159, -0.0606649071, 0.0909011438, -0.0041635027, -0.0469477884, -0.0611812435, -0.0398013443, -0.0048885429, 0.0012253537, -0.0205708724, -0.0253477339, -0.0489737652, 0.0148633942, -0.0544519722, 0.0180679876, 0.0093980823, 0.0237196982, -0.0626679435, -0.0402501673, -0.0528425947, 0.0469080321, 0.0404031798, -0.0039094957, 0.0728862733, -0.0386309139, -0.0283102412, 0.0195456725, 0.0498662256, -0.0595520437, 0.0186871476, 0.0215148237, -0.0311773960, 0.0424306504, -0.0461402200, 0.0660767332, -0.0696809739, -0.0318139493, 0.0387533195, 0.0835945308, -0.1022278368, -0.0288899951, -0.0112214284, 0.0826669633, 0.0313949771, 0.0436198227, 0.0112634050, 0.1329782158, -0.0743861645, -0.0052150455, -0.0210134275, 0.0266625062, 0.0359536260, 0.0779113844, -0.0835679322, 0.0495325774, -0.1034201607, 0.0838389844, 0.0906096399, -0.0042532724, 0.0042315880, 0.1607749015, -0.0544149503, 0.0428837463, -0.0004196267, 0.0751157627, 0.0049398704, 0.0891063586, -0.0266048759, -0.0130627612, 0.0647014007, 0.0045258780, -0.0596265644, -0.0505857207, -0.0040085870, -0.0356356315, -0.0185848046, 0.1038452461, -0.0770286843, 0.0859612301, -0.0398637019, 0.0114517687, 0.0350998193, -0.0560639426, -0.0636616647, -0.0849260539, -0.0297313221, 0.0312060229, -0.0734178349, -0.0548379123, -0.0719785616, 0.0606546812, -0.0166844334, 0.0049745291, 0.0144726140, 0.0526152290, -0.0655097067, 0.0099434126, 0.0063445596, 0.0512722321, -0.0032584437, -0.0407096893, -0.0340772457, 0.0497960411, -0.0667514205, 0.0058147982, 0.0496798493, -0.0568569638, 0.0359532051, -0.0100944368, -0.0765907392, 0.0076831928, -0.0402344093, 0.0549477115, -0.0454826280, 0.0594425797, -0.1437040269, 0.0249464195, -0.0693486705, 0.0377737656, 0.0237662196, 0.0379683636, 0.0477864519, -0.0764754191, 0.0278555397, 0.0606614240, -0.0737016425, 0.0538685992, -0.0205309317, -0.0396287590, -0.0637556612, 0.1288560331, 0.0426453017, 0.0126158679, 0.0451445095, 0.0383131653, 0.0666256621, -0.1069747955, -0.0212096553, 0.0064933910, 0.0214044563, 0.0208002422, 0.1047262102, 0.0302438289, -0.0297349710, -0.0375164934, 0.0774037167, -0.0201004334, 0.0361205749, 0.0105504058, -0.0450159162, 0.0015651283, -0.0551663861, -0.0270424820, 0.1397138536, -0.0882829577, -0.0188590381, -0.0039982134, -0.0372464620, 0.0543849021, 0.0217846166, 0.0013815397, -0.0572892986, 0.0527957231, -0.0676094741, 0.0288037769, -0.0444707088, 0.0794499964, 0.0193914026, 0.0142634595, 0.1042263657, 0.0436562486, 0.0242871922, -0.0463841930, 0.0640030727, -0.0024764491, 0.0632046759, 0.0566980653, 0.0647578612, 0.0708843917, 0.0613703206, 0.0958935544, -0.0687606633, 0.0573197231, -0.0772298276, -0.0197162945, 0.0330320299, 0.0285693873, -0.0591624603, -0.0452189408, 0.0209906045, 0.0781308264, 0.0986281410, 0.0373745635, 0.0458042473, 0.0204287563, -0.0319790803, 0.0121168271, -0.0168087445, 0.0526403449, 0.0340487957, 0.1617692709, -0.0215740409, 0.0171771366, -0.0377913527, 0.0219471287, -0.0743974820, 0.0976924971, 0.0955347493, 0.0642419904, -0.0452616289, 0.0025221636, 0.0309962966, 0.0354400761, 0.0793430731, -0.0771444961, 0.0226140134, 0.0546747707, 0.0149216121, 0.0633617789, 0.0689972714, -0.0367036313, -0.0657009780, 0.0556462593, -0.0292293746, -0.0007097008, -0.0008390556, 0.0810714886, -0.0223391037, 0.0314557478, -0.0826279819, -0.0074999202, -0.0692896619, 0.0662703738, 0.0099275559, -0.0237525981, -0.0884425044, -0.0872476771, -0.0209056903, 0.0650248304, 0.0642604306, 0.0654662997, 0.0371224731, 0.0355432630, 0.0530534722, 0.0672923848, 0.0518663861, -0.0732017905, 0.0341056213, 0.0214792136, 0.0139488857, -0.0576780438, -0.0063693747, -0.0750699267, 0.0279604550, -0.0719448328, 0.0440808907, 0.0991755128, 0.0352461226, -0.0623913072, -0.0290583782, -0.0264969654, 0.0412035622, -0.0469672456, 0.0021823747, 0.0458052158, 0.0892682523, 0.0262695868, 0.0687775016, 0.0585371293, 0.1188605130, -0.0192384943, -0.0291854441, 0.0780701712, -0.0298524685, -0.0024653778, -0.0009279029, 0.0269535501, 0.1131666526, 0.1136915758, -0.0565691255, -0.0130175892, 0.3487736285, -0.0742493272, 0.0999197140, -0.0054174727, 0.0684719011, 0.0460562445, -0.0327958502, 0.0243589133, -0.0104837343, -0.0457755476, 0.0432725772, 0.0169495232, 0.0030767971, 0.0597571768, 0.0590200946, 0.1064263061, -0.0171697214, 0.0520276427, 0.0105341310, 0.1185517535, 0.0879990384, 0.1229512990, -0.0529885441, 0.0628254488, 0.0029019942, 0.0866518393, 0.1016430557, 0.1000238433, 0.0544536747, 0.0529551245, -0.1377586871, 0.1257776320, -0.0024476419, -0.0416338444, -0.0493844785, 0.1348142624, 0.0015561824, 0.0315095782, 0.0623846650, 0.1005633697, 0.0030527178, 0.0129240146, 0.0733456016, 0.0614577010, 0.0720134825, 0.0846964642, 0.1079700440, 0.0546623133, 0.0835327581, 0.0682884082, 0.0466165766, -0.0247636735, 0.1131476462, 0.0991286337, 0.0058128233, 0.0520077571, -0.0179907568, -0.0100523932, 0.0126141543, -0.0103766294, 0.1089541614, 0.0028833940, -0.0112947058, 0.0558912456, 0.0851794854, -0.0929636657, 0.0066458499, 0.0356051400, 0.0660771057, 0.1324747056, -0.0059726308, -0.0028074021, 0.0485732965, 0.0462076478, 0.0439542830, 0.0261749905, 0.0032191449, 0.0226772167, 0.0022556873, -0.0148558747, 0.1083716825, 0.0141072925, 0.0582134947, 0.0759046823, -0.0027653081, 0.1256128848, 0.0299382582, 0.0013569072, -0.0232357141, 0.1156094894, 0.0539593659, 0.0305890236, -0.0041034017, -0.0183294993, 0.1340619773, 0.0480405055, 0.0631342158, -0.0298990738, 0.0418094844, -0.0171256047, 0.0850461572, 0.0317431875, -0.0383798704, -0.0551325418, -0.0101221018, 0.0461476669, 0.0376912616, -0.0149301533, 0.0250292774, -0.1349321455, -0.0066739940, -0.0479178876, 0.0380482450, 0.0187100377, 0.0678971261, -0.1007958725, 0.0010418108, -0.0087735998, -0.1180332229, -0.0247952044, 0.0793382376, 0.0751299262, -0.0926292241, 0.0658417419, 0.0802704617, 0.0958468467, 0.0503097624, 0.0712591484, 0.0649529323, -0.0515742190, 0.0026025975, 0.0767433494, -0.0088209296, -0.0454578847, -0.0276027769, -0.0093806656, 0.0518209301, -0.0009739024, 0.0129651455, -0.0493439510, -0.0593945384, -0.0497467220, 0.1213918850, -0.0113670090, -0.0004407453, 0.0573482700, 0.0122812530, 0.0897944197, 0.0091764349, 0.0570171736, 0.1127663180, -0.0494196787, 0.1093776226, -0.0066560372, 0.1440830231, -0.0387502760, 0.0382547937, 0.0991060287, -0.0554029308, 0.0599318296, 0.0976743475, -0.0780450776, 0.0139235789, -0.0141873760, 0.0466432683, -0.0211211815, 0.0921323299, -0.0609750748, -0.0172495209, 0.0222018957, 0.0803705454, 0.0210435744, -0.0314677618, 0.0285182744, 0.0084179165, -0.0056226067, -0.0457935221, 0.0519928224, 0.0490205288, -0.0136973392, 0.0788095370, -0.0576395765, 0.0026272652, 0.0731285289, -0.0054078200, -0.0591414906, -0.0013510888, 0.0592175648, -0.0221106596, 0.0520236008, -0.0793189332, 0.0650514364, -0.0296808686, 0.0392610095, 0.1031502783, -0.0116315689, -0.0332672857, -0.0291171204, 0.0795353502, -0.0456111170, -0.0122102052, 0.0395925716, -0.0442838855, 0.0255090091, -0.0759389922, 0.0029687071, 0.0735207349, 0.0048016985, 0.0679930001, -0.0412748232, 0.0937219858, 0.0721302405, 0.0081977863, 0.1312294751, 0.0841196850, -0.0299266130, 0.0953313932, 0.0732374266, -0.0300132427, 0.0438894816, 0.0409916192, -0.0327757448, 0.1473054290, 0.1160286292, -0.0222915187, 0.0647995472, -0.0155347995, 0.0253136940, 0.0758075118, 0.0294807106, -0.0696296096, 0.0650574565, 0.0262017306, 0.0554134175, 0.0737002566, 0.0030474069, 0.0687794238, -0.0348772742, 0.0190453380, -0.0698922724, 0.0779583827, 0.0335630961, 0.1150022000, 0.0214285534, -0.0561482906, -0.0217375811, 0.0594755933, 0.0965956300, 0.0785739198, -0.0639742389, 0.0370527059, -0.0573549010, 0.0934826285, 0.0024984400, -0.0617344901, 0.0520802550, -0.0813553110, 0.0574880689, -0.0136160376, -0.0374602638, 0.0744912401, -0.0083718570, -0.0002205212, -0.0026199324, -0.0663435087, -0.0401748493, 0.0388965197, -0.0370136760, -0.0601548329, 0.0421400741, 0.0398340151, -0.0335008539, -0.0546687096, 0.0231238827, -0.0304810256, 0.0709415227, 0.0085137514, 0.1116656959, 0.0734862611, 0.0348533988, 0.0256088227, -0.0482152961, -0.0527038239, -0.0319636613, -0.0368153900, -0.0503081791, 0.1003008857, 0.0661755279, 0.0706325918, -0.0090811281, -0.0484595746, -0.0890021324, -0.0583819598, -0.0389732718, 0.0212417692, -0.0104268771, 0.0463855863, -0.0556300730, -0.0484520756, -0.0503235757, -0.0636816472, 0.0432667732, -0.0086442055, -0.0087401504, -0.0149982078, -0.0185671952, 0.0004742670, 0.1126465276, -0.1107915640, 0.0322807208, -0.0509678423, -0.1054854020, -0.0284182262, -0.1054824814, -0.0122632291, -0.0716497824, 0.0659522265, -0.1162972897, -0.0214636326, -0.0188025460, -0.1747639477, -0.0865585953, -0.0990106910, 0.0426836349, -0.0533263423, 0.0058036982, -0.0163117815, 0.0112992916, -0.0628663227, 0.0030079004, -0.0733244568, 0.0421431214, 0.0593481101, 0.0558817610, -0.0408702716, -0.0353718102, -0.0118785109, -0.0083090384, 0.0004362832, -0.0450712778, -0.0783012137, 0.0047383737, -0.0029897899, 0.0299666785, -0.0245138910, -0.0025210686, -0.0533789508, 0.0360031873, -0.0643061996, -0.0913849697, 0.0831939802, 0.0096685188, -0.0986029506, -0.0292376783, -0.0898571685, 0.1583967358, 0.0181922521, 0.0473211966, 0.0720881745, 0.0376934335, 0.0654834136, -0.0364571735, -0.0671237856, 0.0364966169, -0.0160891470, 0.0976041183, 0.0012050747, 0.0010721439, -0.0185784325, -0.0292226970, -0.0103979707, 0.0773121268, -0.0441000536, 0.0150269428, -0.0421164185, -0.0504943877, -0.0848968849, -0.0380724631, -0.0648751333, -0.0240460876, 0.0383172221, -0.0101968134, -0.0713914335, -0.0053816731, -0.0330454335, 0.0066781710, -0.0560853258, 0.0334131792, -0.0164669678, 0.0684168935, -0.0178613607, -0.0006956133, -0.0463410243, -0.0505218133, 0.0352192633, 0.0152185112, -0.0190247186, -0.0566854253, -0.0430908762, -0.0502968170, 0.0099383136, -0.0283803195, 0.0632226169, 0.0322536863, 0.0577816851, 0.1151533201, -0.0228878688, -0.0221080370, -0.0097395815, 0.0539969467, 0.0258686207, -0.0200471468, 0.0487577468, 0.0737024024, 0.1361993700, 0.0150396237, 0.0041239974, 0.0089973742, 0.0706344396, -0.0233088732, -0.0047277715, -0.0636630654, 0.0695130304, -0.0843189210, -0.0796245486, 0.0758930519, 0.0584760681, -0.0199316740, -0.0534819290, 0.0358818769, 0.0179383252, 0.1329342574, -0.0347621255, -0.0659837648, -0.1507329643, 0.0949376151, -0.0928044021, -0.0580378287, -0.0258425511, 0.0767677426, -0.0672201291, -0.0876192823, 0.0635693520, 0.0169530362, 0.0217026863, -0.0226232000, 0.0214604232, 0.0427912995, -0.2030021548, -0.0519921929, 0.0309235379, -0.0617455244, -0.0046613207, 0.0570311248, -0.0325429142, -0.0039102817, -0.0820702091, 0.0592330135, -0.0006223401, 0.0646818802, 0.0626700222, 0.0752694234, -0.0912498310, 0.0430134870, -0.1085488349, 0.0398370177, 0.0325927325, -0.0803466514, 0.0405352376, -0.0039223642, -0.0052115135, -0.0522050820, 0.0404802226, 0.0277704541, -0.0145051535, 0.0119890133, -0.0490700677, -0.0399390720, 0.0176819842, 0.0561709292, 0.0145222116, 0.0117276227, 0.0132819377, -0.0233377255, 0.0052789836, 0.0015457171, 0.0574871674, -0.0732322931, 0.0463065170, -0.0586739108, -0.0098745702, 0.0398907214, -0.0719911009, -0.0056128362, 0.0481734276, -0.1002778411, 0.0103032300, 0.0911599919, 0.1378164589, 0.0963475406, 0.0239163712, -0.0101414230, 0.0517648868, 0.0363565385, 0.0372932144, 0.0601774044, -0.0556130558, -0.0442645326, 0.0373611934, -0.0515468195, -0.0807725042, -0.0292673111, 0.1603132933, -0.0585852228, -0.0109623224, -0.0470922142, -0.0202830359, -0.0360575281, -0.0600823127, 0.0888022184, 0.0447809808, 0.0959441066, -0.0672291592, -0.0030304445, -0.0896284208, 0.0461366139, 0.0065580658, 0.0205311198, 0.1004383639, 0.0412041359, -0.0540197119, -0.0117320791, 0.0385851488, 0.0255197920, -0.0486562997, 0.0806771889, -0.0256828163, -0.0356231332, -0.0604071394, 0.0998408422, 0.0456251726, -0.0084822765, 0.1781003177, -0.0002462381, 0.0748246014, 0.0566675216, -0.0311171878, 0.0106698871, -0.0663225427, -0.0629045069, 0.0329964608, 0.1014928296, 0.0261362381, -0.0135577284, 0.0823335871, 0.0589800291, 0.1104982942, -0.0015041773, 0.0718311742, -0.0907026455, 0.0049598170, -0.0238825046, 0.1164669618, -0.0575135276, 0.0559827015, -0.0239157900, -0.0513154007, -0.0446330495, 0.0105970176, -0.0132100005, 0.0429468155, 0.0287716426, 0.1164515838, -0.0366200954, -0.0681825578, 0.0559248216, 0.2005778104, 0.0494666509, 0.0900933892, 0.0944115445, 0.0597213395, -0.0018260849, 0.0334089287, 0.0847521126, 0.0689335614, 0.0724856257, -0.0902898312, 0.0104145119, -0.0290666502, -0.0306093264, 0.0492245927, -0.0393069573, 0.1037545279, 0.0072119897, -0.0187054928, 0.0492899418, 0.0438795574, 0.0970498472, 0.0922608376, -0.0271658916, 0.0256188959, 0.1170798168, 0.1067792922, -0.0121025946, 0.0572405457, 0.0161712430, -0.0964937359, 0.1156362891, -0.0284932796, -0.0526088886, -0.0623586476, -0.0058327932, 0.1293735057, 0.0166362170, -0.0039697867, 0.0485506281, -0.0176989175, 0.0627948120, 0.0420814566, -0.0494094752, -0.0323143564, -0.0106582223, 0.0844765529, -0.0244681481, 0.1064075530, -0.0354519449, -0.0102530457, -0.0546466336, 0.0853708461, -0.0279511921, -0.0144160716, 0.0367749706, 0.0347103998, 0.0881036967, -0.0036349595, -0.0438135900, 0.0827971697, 0.1113635004, 0.0227613654, 0.0128407478, 0.0642925575, -0.0682591349, -0.0542423986, 0.0228634626, 0.0611609556, 0.0134280827, -0.0417364985, 0.0366063416, -0.0298052114, -0.0583382696, -0.0890379995, 0.0032644628, -0.0849952027, -0.0496300645, -0.0322917476, 0.0270766672, -0.0063920128, 0.0094512384, -0.0027780230, 0.0339203179, 0.0290401224, 0.0091666179, -0.0034244084, 0.1072229147, 0.1162209287, 0.0853601098, 0.1113668904, -0.0337209105, 0.0978725851, 0.0723024756, -0.0647932142, 0.0892029628, 0.0627226681, 0.0553280711, 0.0557462834, -0.0139778452, 0.0170343742, 0.0261169784, 0.0073719723, 0.0315679982, 0.0734725222, -0.0070479535, 0.0998865515, -0.0157036483, 0.1122733355, 0.0028536567, 0.1166207045, -0.0137851639, 0.0475129634, -0.0242209379, -0.0424196757, -0.0662378147, 0.0741448328, 0.1235274673, 0.0583976246, 0.0430513807, 0.0955058932, 0.0265726242, 0.0568097085, -0.0442726538, 0.0340141393, -0.0062658610, 0.0058238823, -0.0526252352, 0.0437493809, 0.0543207712, -0.0181610920, -0.0334986858, 0.0573626347, 0.0865519717, 0.0062103467, -0.0536924154, -0.0062386869, 0.0992031172, -0.0952575728, 0.0615460239, 0.0545341410, -0.0268049426, 0.1016009450, 0.0438673869, -0.0592120625, 0.0578302518, 0.0848022476, 0.0879610851, 0.0768905282, 0.0056061707, 0.0038774449, -0.0152203217, 0.0116030928, 0.0389185324, 0.1795408279, -0.0150847416, 0.0900458321, 0.0402929261, -0.1079348102, 0.1184837967, -0.0426101610, -0.0617667399, 0.0340356752, -0.0834237859, 0.0840904564, 0.0028105103, 0.0942224190, 0.0807461515, 0.0150166024, -0.0236008596, -0.0463156849, 0.0186680760, -0.0488514453, 0.0666806996, -0.0221336503, 0.0085359020, -0.0753936097, -0.0470262617, 0.0246649291, -0.0295488890, 0.0477407128, 0.0754286870, 0.0370482095, 0.0470883548, -0.0736650750, 0.0120883305, -0.0623644143, 0.0380083434, -0.0034883129, 0.0830308795, 0.0569586568, -0.0233961213, 0.0405532755, 0.0493630134, -0.0716248825, 0.0216707494, -0.0205360204, -0.0440941229, 0.0531316809, -0.0474205129, -0.0059272582, 0.0591805056, 0.0213464964, -0.0274821036, -0.0784064904, -0.0832576528, -0.0386574604, 0.0289061833, 0.0249032304, -0.0874408260, 0.0236395262, -0.0842647031, 0.0364436954, -0.0086852806, -0.0118918577, 0.0284634028, -0.0552567281, 0.0667727143, 0.1295254678, 0.0640411675, 0.0761831105, 0.0638145208, -0.0825388506, 0.0354359783, 0.0853914022, 0.0381803811, 0.0386036076, -0.0990045592, 0.0268771071, -0.0185739622, 0.0425013267, -0.0223886687, -0.0306540430, 0.0625918806, 0.0365620740, 0.0282651335, -0.0376704857, -0.0116822682, -0.0056744129, 0.0684469193, 0.0385240763, -0.0084885210, -0.0529487953, -0.0351189561, 0.0692180842, 0.0804756731, 0.0174561646, 0.0716210902, -0.0458072461, 0.0357453674, -0.0157624260, 0.0635676831, 0.0461879075, 0.0477498323, -0.0841940939, 0.0495288894, 0.0895139948, 0.0128702354, -0.0677075982, 0.0206025727, 0.0141121028, 0.0332123563, -0.0379783921, 0.0613819882, -0.0571509041, -0.0629182383, 0.0384049602, 0.0235816203, 0.0486289151, -0.0030533527, -0.0435665809, 0.0866205022, 0.0602835901, -0.0482842512, 0.1054192185, -0.0141240871, 0.0844331086, 0.0015437035, -0.0809029564, 0.0103261508, -0.0304085277, 0.0298226457, 0.1760385633, 0.1072520539, 0.0144843087, -0.0702865347, -0.2038443536, 0.0822497979, 0.0377440192, 0.0630016178, 0.0510126278, -0.0423955843, 0.0196129493, 0.0170646068, -0.0460358411, 0.0556964017, 0.0397760160, 0.0038626790, 0.0728466511, 0.0891688541, 0.0145313228, 0.0153661491, 0.0175904986, -0.0375108756, 0.0593968406, -0.0820066854, -0.1127792746, -0.0053913733, -0.0383658297, 0.0651389584, -0.0755560249, 0.0163075421, 0.0595262833, -0.0994403809, -0.0891997963, 0.0169842578, 0.0588102937, -0.0065813055, 0.0704337209, 0.0087148948, -0.0026813548, 0.0400550440, -0.0676164627, 0.0224304982, -0.0136467358, -0.0431272388, -0.0835543051, 0.0309681147, -0.0637607649, -0.0364690460, 0.0041416157, -0.0428344719, -0.0394577347, -0.0348759815, 0.0375611447, -0.0225668233, -0.0196619350, -0.0360020176, -0.0036629138, 0.0014022567, -0.0743910298, 0.0186038818, -0.0862474963, -0.0899265260, -0.0156657156, -0.0594879091, -0.1674863994, 0.0121897450, -0.0337963402, -0.0884101316, -0.0131571181, 0.0517204814, 0.0529661328, -0.0445683040, -0.0193710476, 0.0599345639, 0.0418203548, -0.0880008414, 0.0257341359, -0.0348527282, 0.0319865160, -0.0161354784, 0.0435807854, 0.0654691756, 0.0559689477, 0.0492490940, -0.0496945046, 0.0480949096, -0.0725593492, 0.0020027610, 0.0325699300, 0.0461699329, 0.0148631064, 0.0264810063, 0.0632980093, -0.0746779814, 0.0340684615, -0.0201427490, 0.0163417161, -0.0065955971, -0.0542676523, 0.0650014654, -0.0821621865, -0.0100339260, -0.0817054436, -0.0703714713, -0.0402947031, -0.0323509462, 0.0409376696, 0.0413827188, 0.0393180326, -0.0722759590, -0.0214352123, -0.0452960357, -0.0422926843, -0.0244515836, -0.0229302607, -0.0858016387, -0.0393618457, -0.0328235887, -0.0529841743, 0.0135048833, -0.0255562700, 0.0151365139, -0.0379081666, -0.1110885441, -0.0260366704, -0.0068894308, 0.0504630320, -0.0350890867, 0.2173671871, 0.0386093631, -0.0588731915, 0.0636990443, -0.0975478813, -0.0178615637, -0.0758857355, -0.0324683450, 0.0145965694, 0.0138395401, 0.0283979811, 0.0628259704, -0.0722591430, 0.0038734791, -0.0107568977, 0.0275131930, 0.0452575013, 0.0634374693, 0.0263804365, -0.0074903616, 0.0747287646, 0.0209462959, 0.0862968192, -0.0207104087, 0.1447936147, -0.0190166179, 0.0170600004, 0.0813112631, -0.0293204430, -0.0332326367, -0.0408259407, 0.0692195222, 0.0639544800, 0.0678960457, 0.0016918476, -0.0412419960, 0.0189307965, 0.1185408831, 0.1619242430, -0.0554045774, 0.1052784696, -0.0036970777, 0.0490865633, 0.1015315503, 0.0923110694, 0.0401406847, 0.0487439036, 0.0184125733, -0.0518269204, 0.0945188850, 0.0119840251, 0.1075135767, -0.0293916408, -0.0323047675, -0.0483851880, 0.0897074938, -0.0384360142, 0.1374780238, 0.0564558394, 0.0749704614, -0.0142081818, -0.0400153697, -0.0431594253, 0.0026513597, -0.0117800422, 0.0650276542, 0.0013791576, 0.0509128943, 0.0595542528, 0.0545738637, 0.0524404384, -0.0600878820, 0.0883797854, 0.0815384015, 0.0150308823, -0.0301115680, -0.0171959624, 0.1051301882, -0.0145123117, 0.0607566014, 0.0564749911, -0.0832215622, -0.0698551834, -0.0771255493, 0.0756397769, -0.1095969006, 0.0426745377, 0.0173204541, 0.1104287654, -0.0882247686, 0.1112233773, 0.0085914200, -0.0083933929, -0.0099606607, -0.0472817831, -0.0092533091, 0.0152313588, 0.0948164910, 0.0875328183, 0.0755243003, -0.0490283854, 0.0620193556, 0.1760968268, -0.0603190809, 0.0239971429, -0.0187015329, 0.1072814390, 0.0876288339, -0.0116052032, 0.0150542557, 0.0403092429, 0.0217842944, 0.0168850627, 0.0943452939, -0.0359070189, 0.0178868305, 0.0311607867, -0.0655655712, 0.1405360401, 0.0322101153, -0.0019139815, 0.0369082876, 0.0566669777, 0.0633166656, 0.0583842956, -0.0633681715, 0.0286017302, 0.0729895309, -0.0358654186, 0.1093944684, 0.1183890924, -0.0329285339, -0.0884815827, 0.0231023002, -0.0587790683, 0.0219611414, 0.1040290594, 0.1097228751, 0.0736096874, 0.0163139980, 0.0601809844, 0.0108102942, 0.0803590864, 0.0815645903, -0.0337445326, -0.0039954940, -0.0135236774, -0.0343984775, 0.0993310511, -0.0788408145, -0.0197464451, 0.0207680631, 0.0595605709, 0.0796637982, 0.0465822071, 0.0064479588, -0.0350251459, -0.0075465292, 0.0081981318, -0.0486055128, -0.0340043716, 0.0764807612, 0.0323784761, 0.1060160398, -0.0433571897, 0.0206683185, 0.2605188191, -0.0003541000, 0.0839846656, -0.0048767282, 0.0255399812, 0.1199453250, 0.0309710409, 0.1224492341, 0.0139890425, 0.0320447534, -0.0529296473, 0.0512684546, -0.0409629196, 0.0701728240, 0.0149858473, 0.0927725956, -0.0343072377, -0.0333081074, 0.0803667828, 0.0715433434, -0.0012179224, 0.1377226710, -0.0375831351, 0.0398100726, -0.0060211262, -0.0147137847, 0.0448765084, 0.1246255934, 0.0202459563, -0.0289531536, -0.1345947683, 0.0677575693, 0.0540364571, 0.0264980122, 0.0428959318, 0.1197089255, -0.0083826110, 0.1084318683, 0.1307648420, 0.0584447384, 0.0475186333, -0.0196389426, 0.0383636691, 0.0432408676, -0.0317090042, 0.1102694124, -0.0406981632, 0.1625211835, -0.0991498753, -0.0073234676, 0.0121685881, 0.0075539313, 0.0083325589, -0.0170054212, 0.0846551284, -0.0403543562, 0.0516549051, -0.0444661416, 0.0435503460, -0.0699129850, 0.0478378758, 0.0612100810, 0.0064383186, 0.0005494079, -0.0063980795, -0.0666208938, -0.0552521124, 0.0630362630, -0.0061344057, -0.0647056475, -0.0477964915, -0.0303336866, -0.0632787421, 0.0014022226, -0.0310556125, -0.0818345472, 0.0670765713, -0.0275822300, 0.0000071072, 0.0030976965, 0.0018343916, -0.0630168766, -0.0030249681, -0.0142336143, 0.0510986447, 0.0617471635, 0.0299366675, 0.0050774910, -0.1203522012, 0.0753469840, -0.0625188574, -0.0245418884, 0.0320039913, -0.0740064308, 0.0468501896, -0.0841331035, -0.0360056348, -0.0412493087, 0.0106620584, 0.0488479324, -0.0870781913, -0.0202738289, 0.0843747556, 0.0484593213, -0.0289148148, -0.0355726331, 0.1135607064, 0.0783833116, 0.0610910580, -0.0838235542, 0.1111608967, 0.1370181143, 0.1063874364, -0.0145666311, 0.1220614985, -0.1170255542, 0.1510378420, 0.0137610659, 0.0494607985, -0.0745976195, 0.0355722196, -0.0126813957, 0.0681746900, 0.1228279248, 0.0676503628, 0.0550589077, 0.0676369071, 0.0076109129, 0.3437598944, -0.0868766531, 0.1214714274, -0.0274559297, 0.0212827306, 0.0902751014, 0.1034922972, 0.0881835744, 0.0131263277, 0.0636945888, 0.0166999679, 0.0415280834, -0.0021487616, 0.1035264656, 0.1522937268, -0.0322730839, 0.0163158402, 0.1112582460, -0.0176512059, 0.0453404263, 0.0588556789, 0.0672658607, 0.0138598317, 0.0210655760, 0.0536322854, 0.0930171981, -0.0940423161, 0.1501290053, 0.0415585563, 0.0579296350, 0.0525652990, 0.1417885572, -0.0539692976, -0.0344215333, 0.1603271514, 0.2153526396, 0.0187159404, 0.0604396537, 0.1734802723, 0.0187266096, -0.0222439878, 0.0200875383, 0.1019625738, 0.0154472003, -0.0455719717, -0.0217469744, 0.0118972957, -0.0053913868, 0.1250650138, -0.0420054682, 0.1274069846, 0.0516173653, -0.0015696351, -0.0296735056, -0.0165177099, 0.0280288309, -0.0621232726, -0.0007504945, -0.0389237776, 0.0415554941, 0.0059494632, 0.1005902514, -0.0301487204, 0.0934898481, 0.1483173966, -0.0575113222, 0.1108319759, -0.0315872468, 0.1084757820, -0.0106832003, 0.0898731276, 0.0744915307, 0.0958163440, -0.0456979014, 0.0466452949, 0.0000322452, -0.0828211755, 0.0685976967, -0.0343701579, 0.0008584185, -0.0073388005, 0.1135700122, 0.0209495518, 0.0769066811, 0.0598001890, 0.1148242578, 0.1409160048, 0.0882224888, 0.0539699830, 0.0406661667, -0.0114380727, 0.0128528057, 0.1118543670, 0.0616657287, -0.0933553874, 0.0199000407, -0.0324377753, 0.0472084507, 0.0138571607, 0.0289283879, 0.1194018051, 0.1105528176, -0.0113870865, 0.0213321578, 0.0821288154, 0.0806230307, 0.0941386446, 0.0763684884, 0.0136309732, -0.0162606314, 0.0184166636, 0.1271987557, 0.0674586222, -0.0313832164, -0.0304362252, -0.0165678319, 0.0153886760, -0.0418161191, 0.0664044246, 0.0706945136, -0.0114883659, 0.0642720163, -0.0847444758, -0.0374586098, 0.1000923142, 0.0947809592, -0.0478332527, -0.0084702522, 0.3411900103, -0.0095965955, 0.0048989989, -0.0135880560, 0.1123748720, -0.0283134338, 0.0315544382, 0.0578162409, -0.0285109244, -0.0060395133, 0.0578386523, 0.0841334909, 0.0385628939, -0.0426576808, -0.0209540166, -0.0250120480, 0.0547083989, -0.0293900985, -0.0199509207, -0.0232734717, 0.0262331422, 0.1075695232, 0.0075511225, 0.0942039639, 0.0558480993, 0.0655934885, -0.0062905028, -0.0430384055, -0.0393120237, 0.1026286334, 0.0017993306, -0.0515256375, 0.0163209494, -0.0271113142, 0.0662211776, 0.0077535426, 0.0969266742, -0.0117855314, 0.0915129706, 0.0893606320, 0.0806604624, -0.0141670071, -0.0119330753, 0.0555300079, -0.0306408107, 0.0231343210, -0.0085323937, 0.0943169817, 0.0629084036, 0.0737906843, -0.0512185544, 0.0239106175, -0.0075585670, -0.0513325594, 0.0428704768, 0.0735830590, 0.0160372406, -0.0310219154, -0.0390524901, 0.0927528813, 0.0581693389, 0.0179722700, -0.0366773419, -0.0243665315, 0.0266271625, -0.0748970136, -0.0540065058, 0.0506662391, -0.0322672054, -0.0208882131, -0.0549309887, -0.0194315854, -0.0644944012, 0.0362118334, 0.0032320032, -0.0004868115, 0.0056700045, 0.0666648149, -0.0214159284, 0.0549967997, 0.0378801376, -0.0424224399, -0.0441297218, 0.0270095561, 0.0877280533, 0.0568683036, -0.0143924514, -0.0869701281, 0.0301412996, -0.0268976092, 0.0062828595, 0.0167209972, -0.0078353435, -0.0238234904, 0.0217230655, -0.0533367246, 0.0899149179, 0.0615917183, -0.0415163264, -0.0494943410, 0.0053629894, 0.0615517944, -0.0682538971, -0.0114151733, 0.0255559646, -0.0899318382, 0.0734532997, -0.0427470170, -0.0322418958, -0.0168590322, 0.0503417514, 0.0538556837, 0.0327744596, 0.0295030549, -0.1456509829, -0.1058263257, 0.0915156677, 0.0736330524, -0.0078796204, -0.0083261058, 0.0096788285, 0.0443121344, -0.0925207436, -0.0514049865, -0.0197601635, 0.0421554148, 0.0579803437, 0.0081806155, 0.0624967515, -0.0452240296, 0.0169792883, 0.0062753703, 0.1107173115, 0.0982533917, 0.0703155920, 0.1127424911, -0.0347079784, -0.0349510796, -0.0007796876, 0.0028057697, 0.0190148521, 0.0369029380, -0.0491953343, 0.1433518529, -0.0597521774, 0.0845222175, 0.1042680815, -0.0897238180, 0.1143746749, 0.0822312608, 0.0107341846, 0.0107004624, 0.0923021212, -0.0167496372, 0.1029640138, 0.0121678989, -0.0152000617, 0.0857994556, -0.2090876400, -0.0182124451, -0.0175432190, 0.0416551679, -0.1359702796, 0.1028090566, 0.0578205250, -0.0084480336, 0.0347169079, -0.0460646674, 0.0177132860, -0.0438754968, -0.0371029563, 0.0320927948, -0.0346859619, -0.0231261607, 0.0570826679, 0.1047814414, 0.0426186137, 0.0566425771, -0.1404303014, -0.1123524755, -0.0286211278, 0.0122877546, 0.0170599893, 0.0580659099, 0.0579499640, 0.0767158642, -0.0045292191, -0.0894651115, 0.0382146984, -0.0278931130, -0.0163513664, -0.0471109375, 0.0474055633, -0.0346539728, 0.0145426085, -0.0109551856, -0.0065483833, 0.0311751422, 0.0083398046, -0.0468931794, -0.0931683481, -0.0839900002, 0.0483340696, -0.1044983193, 0.0715635344, 0.0561064817, -0.0051693907, 0.0905152559, -0.0568790585, -0.0501200482, -0.0233028680, 0.0176253859, -0.0340457261, -0.0770705044, -0.1058966815, 0.0465585627, 0.0226720702, 0.0479295030, 0.0891221613, -0.0072521796, -0.1068836078, -0.0198618397, -0.0658191890, -0.0503824055, -0.0264204722, 0.0502780937, -0.0727197006, 0.0492738783, 0.0631287917, 0.0319269300, 0.0207123887, 0.0731068626, -0.0324244350, -0.0131009808, 0.1370965242, -0.0531926975, 0.0125333052, -0.0764791220, 0.0565376878, -0.0161682684, 0.0591532439, -0.0789977163, -0.0023535828, 0.0837090388, 0.0536938384, 0.0038204063, 0.0753678009, 0.0710639060, 0.0858861953, 0.0609303489, -0.0032350756, 0.0263177548, 0.0488382466, 0.0680865794, -0.0280125830, 0.1140089110, 0.1607551724, 0.0516190939, 0.0437670276, 0.0562763587, 0.0029943518, 0.0168087520, 0.0160849951, 0.0688911974, 0.0268947240, 0.0575415343, 0.0383829363, 0.0313100591, -0.0057980050, -0.0373661183, 0.0523245074, 0.0781038031, 0.1049483716, 0.0213981736, 0.0699910671, 0.1319855154, 0.0717594922, 0.0942255110, -0.0071948939, 0.0906727910, -0.0470269397, -0.0315657780, 0.0522171929, 0.0725415275, 0.1034038886, 0.0830092207, -0.1143908724, 0.0326104835, 0.0618580878, -0.0307666697, 0.0977888852, 0.1104848683, 0.0785797089, 0.0681738108, 0.0203738417, 0.0505323485, -0.0191140436, -0.0529461503, 0.0540812351, 0.0312224999, 0.0097524878, 0.0511077382, 0.0485788323, -0.0153005840, -0.0344435722, 0.0510862358, 0.0954346880, -0.0801143348, 0.0859182477, -0.0243077818, -0.0794206411, 0.0711594000, -0.0272399653, 0.0065239463, 0.0481586531, -0.0647822618, -0.0602953658, -0.0086451927, 0.0147710908, -0.0472842753, 0.0026592799, 0.0095786285, 0.0695331693, 0.0400658846, -0.0601875558, -0.0119541027, 0.0227573700, 0.0149088055, -0.0120788859, 0.0016968768, -0.0450365916, 0.0905610770, -0.0659308732, 0.0604614615, 0.0569543689, 0.0446851514, -0.0337454379, 0.0906219333, 0.0593744144, 0.0418990664, -0.0427252352, 0.0551258475, 0.0851066411, 0.0458024628, 0.0300760437, -0.0411281846, -0.0144132581, 0.0588467009, 0.0086188745, 0.0907652825, -0.0440248325, -0.0493084416, 0.0107332859, 0.0431425571, -0.0447659530, 0.0287257433, 0.0839885622, -0.0519963764, -0.0029217147, 0.0124220597, 0.0223596245, -0.0117903454, 0.0263244193, 0.1082691923, -0.0418183990, -0.0930424705, 0.0884026140, 0.0405123495, 0.0359044001, 0.0171895195, -0.0349255428, 0.0703894198, 0.0526531599, -0.0068045417, 0.0032218904, -0.0740784109, 0.0162732247, -0.0399669260, 0.0387500487, 0.0201733988, -0.0197639670, -0.0405106954, 0.0200328268, 0.0362768658, -0.1347846985, -0.0041905716, 0.0193377677, -0.0294635911, -0.0334265642, -0.0125203794, -0.0336542875, 0.0182000231, -0.0208448153, 0.1025110409, -0.0276232641, 0.0592757612, -0.0907210782, -0.0156128313, 0.0130583514, 0.0316990130, 0.0393538512, -0.0085342824, 0.0109085310, -0.0622987524, -0.0646815673, 0.0433983244, -0.0286069196, -0.0520845465, 0.0683612004, -0.0654674247, -0.1663715839, 0.0646665394, 0.0177017935, -0.0222728029, 0.0723977908, -0.0800472870, 0.0511114225, 0.0234328955, 0.0348233283, -0.1106073558, 0.0831631124, -0.0243174601, -0.0703055561, 0.0536656380, -0.0833407342, -0.0646180287, 0.0628853142, 0.0043269238, -0.0577982292, 0.0944166407, -0.0093062287, 0.0680630282, 0.0440525599, -0.0472063646, -0.0590045229, -0.0662637204, 0.0358871222, -0.0064798379, 0.0196367614, -0.0690741464, 0.0622521751, -0.0884990320, -0.0513588563, -0.0392682143, -0.0178133976, 0.0166074224, 0.0724362880, -0.0747218430, 0.0464120358, -0.0493043773, 0.0461100638, 0.0203903522, 0.0342974663, -0.0851122364, -0.0380921438, 0.0158988703, 0.0081749512, -0.0635764375, -0.0079167262, 0.0268319026, 0.0296520572, 0.0330262370, -0.1118946150, 0.0608411208, -0.0588033199, 0.0449023694, -0.0070837014, -0.0830010548, -0.0852907449, -0.0359527841, -0.0262926128, -0.0435014926, -0.0875072703, 0.0052148821, -0.0512566902, -0.0112357996, -0.0267236903, 0.0216938406, 0.1001595855, 0.0358938947, 0.0146497069, -0.0812143385, -0.0490985326, -0.0806135982, -0.0655312613, -0.0699533746, 0.0669886768, 0.0062684007, 0.0229126234, 0.0293260347, -0.0045443624, 0.0588335134, 0.0788236409, 0.0457603708, -0.0349977203, -0.0643187463, -0.0285546109, -0.0206367411, 0.1267052740, 0.0562506616, 0.0400023460, 0.0385639183, 0.0135609424, 0.0019440375, 0.0307898615, -0.0146952420, -0.0524779260, 0.0130310580, 0.0452318862, 0.0184034463, 0.0295723919, 0.0157492571, 0.0577588677, -0.0680140555, -0.0069133146, 0.0661753118, 0.0040987562, 0.0414852686, -0.0611838959, 0.0360087305, -0.0224420410, 0.1001566127, 0.0108752167, -0.0503296554, -0.0104824370, -0.0482410491, 0.0875013098, -0.0616744757, 0.0643636137, -0.0520144626, 0.0101601277, 0.0207112618, 0.0012784324, -0.0243930202, -0.0053705680, 0.0636071414, 0.0307745747, 0.0116865532, -0.0393981822, 0.0306418017, -0.0485915542, 0.0314367265, 0.0282721464, -0.0268236045, -0.0469383933, -0.0391537063, 0.0572862700, 0.0652849600, -0.0244562495, -0.0505886003, -0.0058578360, -0.0564162992, 0.0888320282, 0.0319448709, 0.0053255912, 0.0733384266, 0.0614423268, 0.0314814560, -0.0476831496, 0.0026124478, 0.0755284205, 0.0666300282, 0.0286710840, -0.1035644934, -0.0309807863, 0.0736089051, -0.0653673932, -0.0283206627, -0.0553068891, -0.0369177349, 0.0375708155, -0.0204578824, 0.0363623872, 0.0236670356, 0.0547643788, -0.0016462634, 0.0090942383, -0.0220747478, 0.0796777755, -0.0213873945, -0.0165038351, 0.0769058391, 0.0710899308, -0.0297532398, -0.0491111130, -0.0742345303, -0.0668823123, -0.0551264286, 0.0563597083, -0.0109395217, -0.0534149893, -0.0088102501, 0.0678027719, -0.0252078101, -0.0328548439, -0.0546187498, 0.0835415944, 0.0694826916, 0.0065831738, -0.0465857945, -0.0266642775, -0.0642294586, -0.0698052943, 0.0386312753, -0.0180646516, 0.0644723251, 0.1362626404, -0.0676663816, 0.0348315090, -0.0047533978, -0.0073162252, 0.0716048554, 0.0439123400, 0.0978840217, -0.0566927977, 0.0119326534, 0.0160390344, -0.0456215478, 0.0780742019, -0.0283773467, 0.0788097158, -0.0101929642, 0.0073734899, 0.1114734337, -0.0186764877, 0.0643295199, 0.0799915195, 0.0599176101, -0.0061342805, 0.0444376357, 0.0956863090, 0.0922949687, 0.0874019042, 0.0518234484, -0.0528798364, 0.0082364623, 0.0571997464, 0.1025530249, -0.0570264496, 0.0334974006, 0.1137345284, -0.0862028971, -0.0463338867, 0.0709968507, -0.0019205299, 0.0968902037, 0.0710399896, 0.0982340947, -0.0302405283, 0.0413528085, 0.0637801141, 0.0357361026, -0.0597738065, 0.1262859553, 0.0065050907, 0.0041442458, 0.0059146290, 0.0856591016, 0.0400169119, 0.0800646618, 0.0674990937, 0.1200778857, 0.0728814900, 0.0013854158, -0.0239001606, -0.0067650434, -0.1248343885, 0.0057165949, -0.0548683964, -0.0736728236, -0.0075930376, -0.0062571266, 0.0844489783, -0.0777763948, -0.0756757557, 0.1616840959, 0.0576392189, 0.0457977951, 0.1105171740, 0.0627127737, -0.0550405271, 0.0877967477, -0.0328406766, -0.0116661880, 0.0933071226, -0.1036487892, 0.0544607118, -0.0826971978, 0.0622496344, 0.0283607841, 0.1124791130, -0.0674926713, -0.0337683558, -0.0585429966, -0.0185138397, -0.0512293763, -0.0469286330, -0.0703060925, -0.0200188346, 0.0458926931, 0.0790419728, 0.0314358249, -0.0218590349, 0.1331640035, -0.0187536217, -0.0505696349, 0.0655411109, 0.0431909300, 0.0304010641, 0.0349992961, 0.0909350291, -0.0265104640, 0.0985049754, 0.0612719096, -0.0308538862, 0.0877748355, -0.0948288143, 0.0637175441, 0.0504170544, 0.0105703091, 0.0979479030, 0.0610402003, 0.0592155755, 0.0997964963, -0.0339347161, 0.1074405983, 0.0587780215, 0.0200868994, -0.0377429388, -0.0235190038, 0.0832156762, 0.0299375467, -0.0099407574, 0.0801250488, -0.0730991289, 0.0611287914, 0.0786567107, 0.0617220663, 0.0123382872, 0.1378875375, 0.1251395345, 0.0770579427, -0.0187443271, -0.0180360544, 0.0019493017, 0.0671841577, 0.0792533457, 0.1051517725, 0.0818432122, -0.0999766439, 0.1105885431, -0.0094991419, 0.0688704625, 0.0520399101, 0.1244428903, 0.0954699963, 0.0822199211, 0.0181903597, -0.0135657433, 0.0337765068, -0.0289184190, -0.0089595094, 0.0621972084, 0.1126830354, -0.0178768747, 0.0994521901, -0.0125498949, 0.0288817417, 0.3058814406, -0.0042862236, 0.1023862809, 0.0556755550, 0.1436455399, 0.1168252900, -0.0219694097, -0.0210355204, 0.0391433351, 0.0067075784, 0.0272831284, 0.0733583942, 0.0287230182, 0.0649757087, 0.0968580768, -0.0489121377, 0.0681670979, 0.0831085071, 0.1033107936, 0.0264762100, 0.0472536683, -0.0091707567, 0.1525562853, -0.0096496008, 0.0367209837, 0.0506763496, 0.0475685485, 0.0730178133, 0.1029549167, 0.1434877962, -0.1278315783, 0.0486306883, 0.0931743160, -0.0834579617, 0.0175313894, 0.2194256485, 0.0226669516, 0.0036034321, -0.0063689067, 0.0223101713, -0.0218474306, -0.0199940111, 0.0959000960, -0.0226056818, -0.0535889491, -0.0440412015, 0.0368839018, -0.0943700001, 0.0702070221, 0.0170887485, 0.0093554668, 0.0740719885, -0.0049758414, -0.0589767694, 0.0206590835, 0.0222645719, -0.0427767225, -0.0800797269, 0.0349338986, 0.0754104406, 0.0722666383, -0.0411953144, -0.0686891600, 0.0017078499, 0.1694982201, 0.0064645433, 0.1090492085, 0.0462619253, -0.0405718498, 0.0965025499, -0.0601888262, 0.0518926047, 0.0218273494, 0.0766415522, 0.0201231912, 0.0242714379, 0.0553832203, 0.0750688389, 0.0542413145, 0.0473577604, 0.1135042608, 0.0523370951, 0.0138085587, 0.0297598727, -0.0386975706, -0.0314572044, 0.0426890887, 0.0661552995, 0.0960958973, -0.0516857654, 0.0785163343, -0.0496764556, 0.0310532451, 0.0638599992, 0.0208591763, 0.1127835661, -0.0573994443, -0.0297026150, 0.0136763472, 0.1020276994, 0.1111942381, -0.0402410850, 0.0255853664, 0.0224518925, 0.0505964793, 0.0453947857, 0.0443164371, 0.0033711391, -0.0233728662, -0.0571431257, 0.0345548503, -0.0062175649, 0.0643290579, 0.0085091358, 0.0080418130, -0.0009121106, 0.0956518650, 0.0219942294, -0.0530238897, 0.0607144758, 0.0751365498, -0.0018931202, -0.0699501783, 0.0459297784, 0.0238495562, 0.0601010807, 0.0331507623, 0.0233242903, -0.0708363280, 0.0236174800, -0.0611066446, -0.0611619242, 0.0657005981, 0.0303614549, 0.0882937610, 0.1007174775, 0.0417498872, 0.0176567771, -0.0711242706, 0.0463620201, 0.0614861995, -0.0316515155, 0.0480475500, 0.0985345021, 0.0625708550, 0.0736583099, -0.0243150443, 0.0336335152, -0.0582844429, 0.1035860553, -0.0358409025, -0.0561050735, 0.0961081088, 0.0043696011, 0.1569631100, -0.0242062639, 0.0417552441, -0.0354864448, -0.1177649051, 0.0208418202, -0.0443981551, 0.0623973459, 0.0645274892, -0.0405235365, -0.0249020960, -0.0102203935, -0.0218270216, -0.0424188003, 0.0221452489, -0.0437498093, -0.0920654386, 0.0742433816, 0.0301365778, 0.1001589075, 0.0363438353, -0.0407422222, 0.0019416431, 0.0962615386, 0.0169795677, 0.0734085068, -0.0274293870, -0.0936565548, 0.0719574317, -0.0896500126, 0.0506967977, -0.0641229674, 0.0629457235, -0.0486599132, 0.0198910087, -0.0044162055, -0.0247630756, -0.0671763048, -0.2672707140, -0.0090444190, 0.0314607359, -0.0751192868, -0.0648373887, -0.1116797701, -0.0811581984, -0.0545042530, -0.0010777916, -0.0147758583, 0.0494319722, -0.0420460179, -0.0537614264, 0.0405888334, 0.0379018225, 0.0048463619, -0.0825135335, -0.0876235440, -0.0396616012, -0.0390281528, 0.0172061212, -0.0983411446, -0.0665555224, -0.0903558508, -0.1135464683, -0.0822369307, -0.0800253227, 0.0342061743, -0.0959539264, -0.0519022606, 0.0790316388, -0.0783121958, -0.0119842654, -0.0421081968, -0.0652641505, -0.1568063647, -0.0370628126, -0.1059530973, -0.0675144792, 0.0448875651, 0.0767280385, -0.0606004447, 0.0686024129, 0.0259911269, -0.0140213482, 0.0106508937, 0.0212711636, -0.0216432530, -0.0572529919, 0.0016686291, 0.0588855185, -0.0427094176, 0.0310499426, 0.0647834986, 0.0048608794, 0.0023957002, 0.0410299487, -0.0212725177, 0.0330852345, -0.0396017209, 0.0291953161, -0.0641403198, 0.0705707222, 0.0480730012, 0.0052496823, -0.0253618155, -0.0165297110, -0.0048668082, -0.0290372204, -0.0220172387, -0.0437005125, 0.0140745295, -0.0129766073, -0.0056711421, -0.0843133330, -0.0216463562, 0.0184253324, 0.0339324325, 0.0735507980, -0.0353566296, 0.0810308903, 0.0407416932, -0.0071335398, 0.0491214134, 0.0378060192, -0.0041381945, 0.0436756611, 0.0077461274, -0.0725710541, 0.0670024604, -0.0335565060, -0.0031066185, 0.0499829203, -0.0418258607, -0.0123000536, 0.0687323883, 0.0691448078, 0.0288494211, 0.0818890184, 0.0530439280, 0.0421039388, 0.0474929400, 0.0764113739, 0.0562729686, -0.0206670612, -0.0983229056, -0.0444053560, -0.0779859573, -0.0118492199, 0.0592040457, -0.0247841515, 0.1895112395, 0.0196790546, -0.0370673351, -0.0025213924, -0.0296207089, 0.0114715137, 0.0136452196, 0.0939124823, 0.0744018927, -0.0498456843, -0.0838990882, -0.0732051358, 0.0359815583, 0.0110288449, -0.0060264142, -0.0670879409, -0.0593636557, 0.0752733201, -0.0769272223, -0.0162848439, 0.0138830747, -0.0776359662, 0.0476978086, -0.0482550226, -0.0702702180, -0.0118413828, 0.0423046798, 0.0666175857, -0.0769732371, 0.0384816974, -0.0039298958, -0.0059439410, 0.0281965025, -0.0020290662, -0.0145365577, 0.0072750193, 0.0412875377, -0.0142401960, -0.0237109363, 0.0340917148, -0.0986853763, 0.0610983223, -0.0173062570, -0.1047769263, 0.0060372087, 0.0124552231, 0.0496525951, -0.0292228311, -0.0000177792, 0.0654097721, -0.0292149745, -0.0892867371, -0.0247097872, 0.0485240258, 0.0636220798, -0.0394033082, -0.0907042697, -0.0791802108, 0.0206140336, 0.0015807023, -0.0473658256, -0.0113212494, -0.0244212691, 0.0517541543, -0.1733048409, 0.0108884415, 0.0537255779, 0.0430555902, 0.1473154128, -0.0158210415, -0.0250943452, -0.0621686094, -0.0638786256, -0.0950569436, -0.0016703657, -0.0586543605, 0.0168606751, -0.0205639303, 0.0629733056, -0.0869700462, 0.0254638921, -0.2498631626, -0.0023528277, -0.0461980700, 0.0100817978, -0.0718556941, 0.0059487154, -0.0345570482, 0.0300822686, -0.0635571629, -0.0152262533, 0.0483180061, 0.0655499995, 0.0255328752, 0.0680844709, -0.0587265976, -0.0227815062, -0.0569888428, -0.0208510645, -0.1112778559, -0.0739087462, -0.0130109703, -0.0279096980, 0.0470534675, -0.0044603874, 0.0281108301, 0.0232225582, -0.0513714887, -0.0205563642, -0.0957614928, -0.0064209453, 0.1509083658, 0.0052576377, 0.0527248122, 0.0107888803, 0.0629974157, -0.0796659216, 0.0192509796, -0.0209814589, -0.0387277640, 0.0285377465, 0.0921719894, 0.0313716978, 0.1274522245, 0.0980702862, -0.0113171786, 0.0103523582, 0.0531317741, 0.0759552717, 0.0106693152, -0.0290200189, 0.0232061129, 0.0598116145, 0.0168591179, -0.0276233386, -0.0411953963, 0.0683519989, 0.0994985029, -0.0387759507, -0.0839882791, -0.0203143191, 0.0530528091, -0.0344938189, 0.0685934499, 0.0099179251, 0.2497341037, -0.0549070835, 0.0397112742, 0.1155129448, -0.0233744085, 0.0551986918, -0.0446186364, 0.0462557673, 0.0847227424, 0.0996421129, -0.0417744890, -0.0336690024, -0.0738589093, 0.0333162285, 0.0672505572, 0.0374471135, 0.0271210670, -0.0044826339, 0.0898056775, 0.1229758561, -0.0139756547, 0.0258769151, 0.0103511130, 0.0585749783, 0.0465853512, 0.0294330604, -0.1006502286, -0.0118197380, -0.0221706107, 0.0603766255, -0.0447733700, 0.1248103678, 0.1077603027, -0.0503219813, 0.0933041424, 0.1108657420, -0.0252278540, -0.0027923172, 0.0633235350, -0.0049731028, 0.0845033079, -0.0435048901, -0.0164329559, -0.0035072570, 0.0937983468, 0.0216603689, 0.0063915583, -0.0486348383, 0.1391518414, -0.0199680347, 0.1078674346, -0.0488144569, 0.1121224836, 0.0951021612, 0.0895116255, 0.1204243302, 0.0665271580, 0.0376657508, -0.0368925035, 0.0842756927, 0.0514631942, 0.0293087699, 0.0488465130, 0.0045237108, 0.1518076956, -0.0376654491, 0.0462599620, 0.0245874990, -0.0373598747, -0.0255124867, 0.0588044487, 0.0697807968, 0.0066335779, 0.0362783037, 0.0678416938, 0.0986237973, 0.0397601686, 0.0918586403, -0.0443755798, 0.0964141488, 0.0557175502, 0.0929589719, -0.0032457903, 0.0705132037, 0.1015795469, 0.0753380060, 0.0748031363, -0.0141564114, 0.0536377579, -0.0128661254, 0.0221865512, 0.0972531587, 0.0368678048, -0.0045748805, -0.1168124005, -0.0035467374, 0.0962783843, 0.0581953302, -0.0425326414, 0.1065758541, 0.0931078270, 0.1324355602, 0.0462182909, 0.1012959927, -0.0368348062, -0.0461312905, -0.0187336318, 0.0054726051, 0.0321591459, -0.0375599414, 0.1340314895, -0.0580842532, 0.0783651620, -0.0344462171, 0.1339250058, -0.0698252916, 0.0620730929, 0.0063726632, 0.0538771637, -0.0388218090, -0.0033306964, 0.0454851985, -0.0157977436, 0.1241942719, 0.0131776556, 0.0165251903, 0.0533894636, 0.0412260145, 0.1772311181, -0.0447015800, -0.0218051579, -0.0402077027, 0.0350719802, 0.0917280540, -0.0245977640, 0.0118996678, 0.0105973752, 0.1063338071, 0.0590040758, 0.0182352960, -0.0765613467, 0.0085772146, -0.0239067096, 0.1068364084, 0.1052217931, 0.1300895810, 0.0646020547, 0.1265456080, 0.1241697967, 0.1117435992, 0.0971513316, -0.0138929840, -0.0220860504, -0.0187201798, -0.0356142819, 0.0994860381, -0.0262759700, 0.0356866457, -0.1282088906, 0.1234008744, 0.0544357821, -0.0689119250, -0.0223542713, 0.0364489257, 0.1082868651, -0.0103838975, 0.0451052450, -0.0177132599, 0.0733447969, 0.0148491003, -0.0210313853, -0.0194868147, -0.0560144521, 0.0562728904, -0.0375851914, -0.0865098089, 0.0946903676, -0.0458333977, -0.0592364371, 0.0374803916, 0.0396689177, -0.0322609469, 0.0557750612, 0.0757854283, -0.0592351928, 0.0766447559, -0.0272695553, -0.0294950008, 0.0638052151, 0.0138875283, 0.0257224292, 0.0100161163, 0.1740778387, -0.0404216126, -0.0477884300, -0.0023366397, 0.0394816995, 0.0415931083, -0.0190357082, 0.0794695020, 0.0532296114, -0.0515220873, 0.0440941006, -0.0475970209, -0.0832360908, -0.0092584919, 0.0762024745, 0.0276470017, 0.0241266061, -0.0152834235, 0.0564487278, 0.0170444697, 0.0228223894, 0.1457408220, 0.0379797816, -0.0521216281, 0.0686097518, 0.0612796657, -0.1521129757, 0.0700969771, 0.0772756934, 0.0137608266, 0.1312182844, -0.0832698345, 0.0271221884, 0.0620608293, -0.0655052960, 0.1171425059, -0.0570400320, -0.0502086431, -0.0113999881, -0.0116549190, 0.0333159193, -0.0579199046, -0.0541809946, 0.0674282908, -0.0087097818, 0.0076763676, 0.0017032011, 0.0143423835, 0.0236255061, -0.0100829788, -0.0046340502, 0.0960701481, 0.0775416568, 0.0160627179, 0.0244535487, 0.1014724225, -0.0189262591, 0.0041642962, -0.0124690030, -0.0034563194, -0.0430350229, 0.0635424927, -0.0872274563, -0.0438356735, 0.0218114778, 0.0710561126, 0.0417071097, 0.0172618143, 0.0065178820, 0.0888480693, 0.0016563397, 0.0419894233, -0.0643993765, 0.0713227242, -0.0047003422, -0.0261058584, 0.0436798185, 0.1105783135, -0.0281209033, 0.0821456239, -0.0351884142, 0.0985844359, -0.0463329628, 0.0696707070, -0.0029716347, 0.0832191035, -0.0226329137, 0.0867656693, 0.0530395061, -0.0474388488, 0.0289917458, -0.0390956104, -0.0020592734, 0.0077330191, -0.0712189823, 0.0408506319, 0.0879352540, -0.0928392410, -0.0760965943, -0.0427232459, 0.0539908037, 0.0512494594, 0.0937133506, 0.0035265228, 0.0051566875, -0.0973155275, -0.0276860222, -0.0287752859, 0.0509445816, 0.0527312383, -0.0139062675, -0.0466327779, -0.0643514469, 0.0980399847, -0.1408925802, -0.0801975057, -0.0085734436, 0.0103712976, -0.0901406705, 0.0815520287, -0.0195104983, -0.0452186540, 0.0078446530, 0.0147101628, -0.0643050894, 0.0223801136, -0.0627129450, -0.0784075409, 0.0631130785, -0.0847569481, 0.0291355774, 0.0182500090, -0.0063473005, -0.0174940303, 0.0105427094, -0.0213326588, 0.0377003998, 0.0210081488, -0.0763780624, 0.0012012959, -0.0783156604, 0.0423342995, 0.0069609685, 0.0274424385, 0.0295959897, -0.0880806297, 0.0448466986, -0.0756785050, 0.0875409022, -0.0516890064, -0.0192379393, 0.0615720935, 0.0419200547, 0.0679183155, 0.1095340103, -0.0909396932, 0.0475278534, -0.0813249499, 0.0715007931, -0.0857962966, 0.0601235516, -0.0049430160, -0.0205739457, -0.1142903268, 0.0647805482, 0.0739555731, -0.0969491303, 0.0746783391, -0.0051099374, -0.0883801207, 0.0844561532, 0.0145676145, -0.0177901853, 0.0214910042, -0.0353949033, 0.0394941308, 0.0347339138, -0.0574773625, -0.0392427221, 0.0284392126, 0.0727233663, 0.0017113944, -0.0758037344, 0.0918788761, 0.0639807805, 0.0951558426, 0.0476133190, -0.0562917851, -0.0824172869, 0.0132007971, -0.0004633522, -0.0792495534, 0.0108126048, -0.0879850239, -0.0295156967, 0.0768628865, -0.0750249252, 0.0010340296, 0.0023595092, -0.0399804637, -0.0680504888, -0.0767481700, 0.0178680178, -0.0690159276, -0.0847394317, 0.0088974386, 0.0063858139, 0.0734400600, -0.0381521434, -0.0612713471, -0.0235652849, 0.0041171429, -0.0157931224, 0.0425597653, -0.0361160189, -0.0469455309, 0.0576580390, 0.0895725563, -0.0178617369, 0.0554153062, -0.0513016917, -0.0509411357, -0.0485922955, -0.0982780233, 0.0458408557, -0.0943722427, -0.0835954547, 0.0127343396, 0.0194369555, -0.0018046348, 0.0726618171, -0.0099653555, -0.0047412715, 0.0260274783, 0.0597599298, -0.0431477726, -0.0031822305, -0.0895032883, -0.0324346051, -0.0211222023, -0.0460674129, -0.0195047799, 0.0397257917, -0.0266007148, -0.0067035332, -0.0211643931, 0.0020665715, 0.0968161300, 0.0874181315, 0.0246048234, 0.0411649942, 0.0787771046, 0.0740441978, -0.0074714352, 0.0212532524, 0.0182974022, 0.1333969086, 0.0311690103, 0.0363884009, -0.0453447700, 0.0630019754, -0.0285482351, 0.0023261125, 0.0024452184, -0.0212102663, -0.0143100815, -0.0964949206, 0.0569202937, 0.0490641370, 0.0953995436, 0.0259025060, 0.0167158041, 0.0329105332, 0.0037313835, -0.0373284593, 0.0437380672, -0.0120446505, 0.0054284316, 0.0489506237, 0.1051803455, -0.0573737510, 0.0133473799, 0.1240860447, 0.0624337457, 0.0047166897, -0.0458718054, -0.0554256588, -0.0232571103, 0.0721417591, -0.0845678970, 0.0169521961, -0.0282577518, 0.0117572453, 0.0972004309, -0.0215049200, -0.0073660221, -0.0288300421, 0.0204400867, -0.0084801894, -0.0073755453, 0.0957968235, -0.0911640078, 0.0363358893, -0.0261483099, -0.0097811976, -0.1041167006, 0.1154519320, -0.0045368457, -0.0039654905, 0.0582015254, -0.0010357357, 0.0845169127, 0.0070447596, 0.0715503693, 0.0218386538, -0.0141475638, 0.0631324798, 0.0204378869, -0.0569618717, 0.0725893080, 0.1315996498, -0.0576170832, 0.1255659163, -0.0262182783, 0.0725681633, -0.0157727674, 0.0732567534, -0.0170344692, 0.0056219236, 0.0653655380, 0.0636297762, -0.0055897152, 0.0368415527, 0.0852764845, -0.0213073213, -0.0124785472, 0.1217318103, 0.0684682280, -0.0475866422, 0.0618351661, 0.0298606642, -0.0160236396, 0.0502270274, -0.0413050801, 0.0325135253, 0.0669434667, 0.2321345657, 0.0933598056, -0.0520325042, 0.0391810015, -0.1361166984, 0.0625037178, 0.1013801768, 0.0612441786, 0.0011476186, 0.0534120873, 0.0928528979, 0.0641637519, 0.0637142882, -0.0258175600, 0.0678339526, 0.0360330343, 0.0925628319, -0.0304388572, -0.0374140292, -0.0064781518, 0.0393115282, -0.0571060553, 0.0922471061, 0.0463925861, 0.0417645313, 0.0440814979, 0.0713469461, 0.0746642351, 0.0790462419, 0.0964003727, 0.0578180961, -0.0039698579, -0.0289833844, 0.1035766527, 0.0590777025, 0.0120042395, -0.0631573424, 0.0300493222, 0.1759860218, 0.0067099589, -0.0484716110, 0.0937360972, -0.0361826867, 0.0907088071, -0.0266651306, -0.0314990617, -0.0318467319, 0.0186578035, -0.0683345124, 0.0468146205, 0.0496058911, 0.0038976537, 0.0495585389, -0.0434134305, 0.0457505696, 0.1061099768, 0.0899625644, -0.0043911962, 0.0313937105, -0.0319842063, 0.0570729002, 0.1164546758, 0.1038445458, -0.0316081196, 0.0077983555, 0.0722697824, -0.0369942039, -0.0477865636, -0.0314537175, -0.0258071404, 0.0048919660, -0.0337513611, 0.0746351257, 0.0554831326, -0.0319586135, -0.0232565533, 0.0966238305, -0.0805850849, 0.0746348575, -0.0136624705, -0.1259690225, 0.0674328655, 0.0219542235, -0.0004080239, -0.0626291707, 0.1014893949, -0.1207453012, 0.0602130927, -0.0143252369, 0.0698381662, -0.0550666861, 0.0714983568, -0.0667168796, -0.0384686738, 0.0868287385, 0.1054629087, 0.0455484167, -0.0245996788, 0.0417857207, 0.0449835658, -0.0638100654, -0.1317848861, -0.0175778475, -0.0352311283, -0.0010992750, 0.0304791573, -0.1068904549, -0.1196316257, 0.0298576765, 0.0235037301, -0.0649659112, 0.0042656544, 0.0616211183, 0.0307679549, 0.0521382317, -0.0132823903, -0.0631949678, 0.0051866877, -0.1148561016, -0.0815046951, 0.0730681419, -0.0994274989, 0.0298471022, -0.0703750923, -0.1343259960, -0.0253572129, -0.0686359257, 0.0545291603, 0.0586478710, -0.0491243228, -0.0171546228, -0.0739517957, -0.0393209085, 0.0377712101, -0.0038663421, 0.0180320349, -0.0170310996, -0.0263678189, -0.0694747716, 0.0034515886, -0.0045713359, 0.0906366780, -0.0160987601, 0.0672612935, 0.0762533098, 0.1015859246, -0.0424630977, -0.0531712398, -0.0316092931, 0.0302478746, -0.0355354361, -0.0938394889, 0.0955741853, 0.1971303821, 0.1105386838, -0.0092641842, 0.0284783486, 0.0109632853, 0.0355404541, -0.0756137818, -0.0410360210, 0.0086367736, 0.0445534401, -0.0461926647, -0.0051098997, 0.0415763035, 0.0118537797, -0.0193989296, 0.0210388023, 0.0526817329, 0.0106239067, 0.0766466931, 0.0686172992, 0.0396731831, 0.1222658008, 0.1456122845, 0.0149941947, 0.0736495852, -0.0583715625, -0.0120185623, 0.0313794948, -0.0157933272, 0.0597110540, 0.0261154082, -0.0493550673, 0.0283163823, 0.0650639981, -0.0032229300, 0.0739130750, -0.0413095281, -0.0224185437, 0.0328424387, -0.1291825026, 0.0608047657, -0.0073963446, -0.0546898693, -0.0191054456, -0.0236011017, -0.0353170149, -0.0318604410, 0.0190235302, -0.0260755531, -0.0060818656, 0.0709424540, 0.1424184144, 0.1089789793, -0.0130981300, 0.0341276191, 0.0902834162, 0.1099306569, -0.0363974236, -0.1085331663, 0.0806807205, 0.0597524717, 0.0720411018, 0.0872340575, 0.1415690482, 0.1399149746, -0.0360755958, -0.0202432070, 0.0006851660, 0.0483855754, -0.0346991532, -0.0421433151, -0.0853692740, 0.0794941857, 0.0814028755, 0.0871907100, 0.0481882282, 0.0049779187, 0.1001950279, -0.0936181769, 0.0565723740, -0.0064986004, 0.0753547624, 0.0456649512, 0.0590342171, 0.1080841422, 0.0745595321, -0.0114242006, 0.0353035219, 0.0022311567, 0.0115903188, 0.0569032989, 0.0695625097, 0.0366086401, 0.0675481036, -0.0127512505, 0.0270555895, 0.0500058196, 0.1165095493, 0.0336357877, 0.1012393236, -0.0171713158, 0.0612994395, -0.0380285271, -0.0353677459, 0.0192700345, 0.0872925520, 0.0234605782, 0.0504342690, 0.0766447261, 0.0701090917, -0.0534857064, 0.0842697248, 0.0355660729, 0.1079623550, -0.0002544418, 0.0962971747, 0.0008323114, 0.0559996367, -0.0090282261, 0.0247515813, 0.0686729252, -0.0219326578, 0.0852946118, -0.0035339554, -0.0423925631, 0.0481357016, -0.0298104566, 0.0425309576, 0.0768562257, -0.0126887048, 0.0886142850, 0.0469160862, 0.0422062464, 0.0547282249, 0.0766833946, -0.0450003669, -0.0208028387, 0.0932686329, 0.0564453155, 0.0548007041, -0.0134834507, -0.0047335634, -0.0283363424, -0.0650712997, 0.0116994940, 0.0821391940, -0.0193740558, 0.0023717259, -0.0221284721, -0.0152625395, 0.0362467095, -0.0411052369, 0.0778619871, -0.0716098845, -0.0565751642, -0.0050070747, -0.0329239331, 0.0629276708, 0.0823848099, 0.0441841297, 0.0119430730, 0.0536543131, 0.0024094027, 0.0197782479, 0.0379153378, 0.0736403838, -0.0367621072, -0.0445505790, -0.0231213160, 0.0926979184, 0.0635817498, 0.1082779542, 0.0869723335, -0.0421808288, -0.0638708100, -0.0280851405, 0.0344533771, 0.0115320347, -0.0027302795, 0.0382806249, -0.0044167177, -0.0088497456, -0.0992033035, -0.0723742992, -0.0814767703, -0.0280002654, -0.0762837753, 0.0488854237, 0.0815712959, 0.0559037961, -0.0791422054, -0.0639029443, 0.0402565934, -0.0231638979, -0.0704502761, 0.0227559004, 0.0381935127, -0.0310548674, 0.0577295609, -0.0919226930, -0.0653526187, -0.0665690526, 0.0145618692, 0.0385791436, 0.0154996822, -0.0598311834, -0.0109332558, -0.0257445555, 0.0647762716, 0.0100063635, 0.0665694848, -0.0268942844, -0.0448991992, -0.0760496706, -0.0743177906, 0.0588320866, 0.0355832875, -0.0841116905, 0.0229896866, 0.0475865304, 0.0910152718, 0.0498363674, -0.0473257937, -0.0392837189, 0.0064235553, -0.0835255459, 0.0828054696, -0.0712190941, 0.0372104011, -0.0277601834, -0.0030262172, -0.0411166660, -0.0144857708, -0.0560607389, 0.0601688735, -0.0384731591, -0.0884648934, -0.0113653233, -0.0734527037, -0.0465275608, 0.0100218300, 0.0243395735, 0.0824454054, 0.0168084018, -0.0104026906, 0.0279377811, -0.0145036550, 0.0178300496, -0.0043576295, 0.0151392547, -0.0019088357, 0.1034679115, 0.0564178638, 0.1510787904, -0.0527387410, 0.0035858359, 0.0530814119, 0.0086897258, 0.0037605029, -0.0150028318, -0.0063417237, 0.0180128403, 0.0675523281, -0.0037613083, 0.1232827306, 0.0944277421, 0.0794271901, -0.0861003250, 0.0647380576, 0.1174973249, -0.0786537975, 0.0938684940, -0.0579903573, 0.0398567207, 0.0399735235, -0.0345635936, 0.0087504499, 0.0715743303, -0.0320476815, -0.0015344153, -0.0067097968, -0.0833763853, 0.0246134661, -0.0898182318, 0.0196150877, -0.0420744196, -0.0322732702, 0.0951955542, 0.0195762515, 0.0975606665, 0.1681253910, 0.0748631060, 0.0631962046, 0.0142062847, 0.0587273799, -0.1963966042, -0.0492422059, 0.0952991024, -0.0547039472, -0.1450415701, 0.0971598700, 0.0677323788, 0.0187378824, -0.0699311495, 0.0567523539, 0.1019010469, 0.1150212735, 0.0241238624, 0.0228715334, 0.0372936837, 0.0197680462, 0.0402852818, -0.0295819398, -0.0155027397, -0.0764210224, 0.0258994624, 0.0316537842, -0.0391083732, -0.0048698517, -0.0265400540, -0.0952109694, 0.0678617582, 0.1214862913, 0.0309030339, -0.0013449503, -0.0670351535, -0.0159714483, 0.0658000112, 0.0582481474, -0.0653537288, 0.0029212562, -0.0015952931, -0.1018436924, 0.0637086034, -0.0817164555, -0.0597973913, 0.0476347171, -0.0369268171, -0.0988484398, -0.0488326252, -0.0906193778, -0.0894156471, -0.0360531658, -0.0496378951, 0.0267973822, -0.0371400602, -0.0185625907, 0.0012188568, 0.0481145158, 0.0254287031, -0.0789571106, 0.0722637549, -0.0300487634, -0.0468133092, -0.0057634106, -0.0057403920, -0.1089067459, 0.0349671096, -0.0478513204, 0.1630506963, -0.1000703499, -0.0699365884, -0.0715647861, 0.0120014697, -0.0152308177, 0.0299767032, 0.0042980164, -0.0405509919, 0.0364036746, 0.0772735775, 0.0889591873, -0.0496229269, 0.0828282908, -0.0364624225, -0.0482873656, 0.0852621719, 0.0169505291, 0.1015116572, -0.1031535938, 0.1067292839, -0.0299114399, 0.0409939215, -0.0418505594, 0.0446195789, 0.0326269679, 0.0520902984, -0.0411111638, -0.0632876381, 0.0595247969, -0.0052819648, 0.0480655134, 0.0272962078, 0.0676909685, -0.0269374102, 0.0127196340, 0.0019652040, 0.1185946614, 0.0495494232, 0.0413718596, 0.1068030074, 0.0177645460, 0.0825989917, -0.0226658378, 0.0847820491, 0.0708138719, -0.0183680411, 0.0591560826, -0.0523980893, -0.0133176344, 0.0552684516, 0.0456318185, 0.1129548550, -0.0399884284, 0.0803114101, 0.0139392791, 0.0398475602, 0.0182376876, -0.0067241034, -0.0137330545, 0.0426544547, -0.0252524242, 0.0255594216, 0.0184725896, 0.0370466821, 0.0722562596, 0.0751911923, 0.0691977441, -0.0460654497, -0.0029329476, 0.0601443239, -0.0573528595, 0.0732263476, -0.0196016654, 0.1126916334, -0.0047675990, 0.1009592190, 0.0232880507, -0.0487323478, -0.0337268226, -0.0133409798, -0.0020304080, 0.0977889076, -0.0597983450, -0.0059142145, 0.0188389178, 0.0362992063, -0.0677845329, 0.0916649550, 0.0177184865, -0.0097174309, 0.0337957628, 0.0479541905, -0.0102825537, 0.0487190299, 0.0048368000, 0.0047979634, 0.0382017717, 0.0028566094, 0.0692463890, -0.0026860940, -0.0217364840, -0.0029099451, -0.0372687317, 0.0250075366, 0.0853839070, -0.0263126586, 0.0886997879, 0.0558486618, -0.0071657244, 0.0247115232, 0.0508533455, 0.0393079184, -0.0708572716, 0.0243712198, -0.0159229059, 0.0712169334, 0.0522325672, -0.0282940641, 0.0313592367, -0.0473656729, -0.0203506611, -0.0551217757, -0.0091663795, 0.1017721891, -0.0560894199, 0.0217741784, 0.0295294989, 0.1758857667, 0.0213352609, 0.0033341944, 0.0018231999, -0.0366499349, -0.0400519744, 0.1008675098, -0.0520521551, -0.0294726454, 0.0850469917, 0.0619037561, -0.0290269516, 0.0624721609, -0.0505103432, 0.0373957902, -0.0443246253, 0.0844528154, 0.0339028351, 0.0396179780, 0.0529613905, 0.0707732961, -0.0121649802, -0.0789425299, 0.0479634777, 0.0681448355, 0.0127414186, -0.0152511504, 0.0388588458, -0.0156755075, -0.0611588806, 0.0557673350, -0.0517725535, 0.0574964918, 0.0216613375, 0.0495481715, 0.0638164282, -0.0744107813, 0.0476178452, -0.0637001544, -0.0036941301, -0.0267643370, -0.0354805477, -0.0868090093, -0.0316106416, -0.0819628239, 0.0092398282, -0.0340636261, -0.0854308084, -0.0532400608, 0.0230090953, -0.0460778996, -0.0444574729, -0.0293735079, -0.0056830226, 0.0559693165, -0.0639453456, -0.0752132758, 0.0057159890, -0.0446897410, -0.0462533124, -0.0618961528, -0.0026075703, -0.0353435911, 0.0296157580, -0.1814272702, -0.0643011034, 0.0464568287, -0.0944833755, 0.0866792426, -0.0189274959, 0.0635719672, 0.0481653959, 0.0027660516, 0.0374935754, 0.0609429851, -0.0006470921, -0.0861002281, -0.0458297394, 0.0529648624, -0.0816080794, -0.0117027648, -0.0083278948, 0.0726314485, -0.0583209842, 0.0134035591, 0.0958505943, -0.0445337445, -0.1132472977, 0.0154321417, -0.0039094854, -0.0850283429, -0.0196935814, -0.0366890244, 0.0620319508, -0.0617183261, -0.0058087395, 0.0424425863, 0.0314487927, -0.0105428491, -0.0733426735, 0.0689198002, -0.0428727157, -0.0734614953, 0.0397404730, -0.0232072938, 0.0195009634, 0.0481860638, 0.0460339598, -0.0852396488, 0.0315681323, 0.0591248423, -0.0767858252, 0.0135621503, -0.0065148217, -0.0524424873, 0.0504732765, -0.0330545977, -0.0220230464, 0.0507771187, -0.0526255593, -0.0079942504, -0.0177264344, 0.0243711956, -0.0496814735, -0.0599235296, 0.0405455045, 0.0455471799, 0.0554308556, 0.1647569686, 0.0526476391, -0.0382327586, -0.0334172025, -0.0783293694, -0.0879952684, -0.0532005131, -0.0848144218, -0.0338576958, -0.0014063478, -0.0517155565, 0.0023601281, -0.0656987652, 0.0476352237, -0.0070853522, -0.0521800704, -0.0456915423, 0.0851995423, -0.0333677493, 0.1002615690, 0.0518329665, -0.1087035909, -0.0044703302, -0.0142781148, 0.0540548898, 0.0007304240, -0.0327755660, 0.0090245260, 0.0338792130, -0.0638656095, 0.0511509068, -0.0046093627, 0.0084174853, 0.0121187111, -0.0721328780, -0.0460017100, -0.0417329594, 0.0531473383, -0.0278933644, 0.0467062928, 0.0784545988, 0.0559062362, 0.0639188439, -0.0630523711, 0.0453468785, 0.0464312024, -0.0027599351, -0.0544375516, -0.0429740399, -0.0267200768, 0.0289336964, 0.0552821010, 0.0521443263, -0.0161788110, 0.0051769880, -0.0231887139, -0.0470397025, 0.0316937193, -0.0512401387, 0.0275644846, 0.0288462676, 0.0697560906, -0.0443012156, 0.0360290632, -0.1171769276, 0.0507508740, -0.0367707498, -0.0155011285, 0.0836555287, -0.0262884833, 0.0054573719, 0.0419474691, 0.0041798716, 0.0042088241, -0.0022940827, -0.0005985036, -0.0057208897, 0.0942529142, 0.0253453683, -0.0521231294, -0.0679209307, -0.0730733946, 0.0533394776, -0.0358795822, -0.0238927621, 0.0499897674, 0.0436952598, 0.1127450466, -0.0731588826, -0.0062726783, 0.0073361052, 0.0569741055, 0.0052837017, 0.1099306792, 0.0610060580, 0.0087517761, -0.0282894336, -0.0452619046, 0.0119956415, 0.0581570677, 0.0148587916, -0.0119559467, -0.0380962081, -0.0731914565, -0.0120928176, 0.0567359664, -0.0670975149, 0.0685750768, -0.0523585975, 0.0714629367, 0.0092997467, -0.0024488885, -0.0330802351, -0.0129177375, -0.0072175120, 0.0281112343, -0.0363038555, -0.0221909676, -0.0197782218, 0.0836775154, 0.0051939953, 0.0531950556, 0.0417023189, -0.0205498673, 0.0510063879, 0.0048607574, -0.0310346428, 0.0244945474, 0.0813880786, -0.0534126833, -0.0301008038, -0.0124742640, -0.0244482644, -0.0344346985, 0.0504151322, -0.0198099073, -0.0742610469, 0.0017804886, -0.0351530164, -0.0039945380, 0.0490241721, -0.0031447355, 0.0882111788, -0.0214577354, -0.0274611339, 0.0507186018, 0.0285718758, 0.0304154120, 0.0193947740, 0.0290618576, -0.0318100229, 0.0098352795, 0.0628016070, 0.0985288322, 0.0443904065, -0.0436741300, 0.0713124126, -0.0636887923, 0.0324263684, 0.0305139013, -0.0293538310, 0.0908363983, 0.0417607427, 0.0547153875, -0.0090048723, 0.0313515738, 0.1009066775, -0.0581173748, -0.0538773797, -0.0628249943, -0.0532479994, 0.0245765317, 0.0662627444, 0.0852578506, -0.0083634453, 0.0857280791, 0.0680256113, 0.0087773306, -0.0423808470, 0.0504741929, -0.0226144902, -0.0185012557, 0.0188900996, 0.1090440452, 0.0032262264, -0.0047492874, 0.0311970226, -0.0070502581, -0.0649280399, -0.0537063107, 0.0262038577, -0.0220906287, -0.1716765463, 0.0536307991, 0.0388636328, 0.0734545514, -0.0253068544, 0.0783676729, -0.0541631132, -0.0785507932, -0.0780098885, -0.0056398455, 0.0073954333, 0.0909076780, 0.0325051881, 0.0386670679, 0.1023245230, -0.0295084268, 0.0447339378, 0.0272069070, 0.0411167815, -0.1270927489, 0.0600905791, 0.0520561039, -0.0275026429, -0.0054923194, 0.1009733528, 0.0108952615, -0.0058829496, 0.1085744873, 0.0202850327, -0.0362489559, -0.0132000111, 0.0922067761, 0.0647170246, 0.0215045493, 0.0336682945, 0.1137610972, -0.0356903039, 0.0692865402, 0.0490959287, 0.0675227121, 0.0398709811, -0.0477534011, 0.0326073840, 0.0797629952, -0.0380878299, -0.0311356094, 0.0983998775, -0.0188549124, 0.0166939069, 0.0423578545, -0.0858048424, 0.0084251584, 0.0475781336, -0.0358721912, 0.0704670399, 0.0426888019, 0.0702979639, 0.1036021039, 0.0861646459, -0.0644708425, 0.0061023808, -0.0443272591, -0.0187690370, 0.0413538292, 0.1189376414, 0.0148422606, 0.0004738973, 0.1020515487, -0.0711851791, 0.0532053150, -0.0165728014, -0.0903186798, 0.0574965701, 0.0248563327, 0.1103953198, 0.0630610958, 0.0320757329, 0.0234839413, -0.0540144816, 0.0609130822, 0.1250970662, 0.0278502367, 0.0542878471, -0.0963307992, 0.0942909867, -0.0603737235, 0.0138663929, -0.0513127781, -0.0383840911, 0.1592544466, -0.0090259453, -0.0758258924, -0.0533800423, -0.0020632092, -0.0529387593, -0.0597002730, 0.0319489166, 0.1190215126, -0.0004678960, 0.0208788905, -0.0102776410, 0.0974928364, -0.0276687108, -0.0645415410, 0.0371662825, 0.0656844899, 0.0796392113, 0.0600549690, -0.0587370098, 0.0322865695, 0.0678433552, 0.0757540017, 0.0282350313, 0.0994027257, -0.0240667202, -0.0188763961, -0.0448714234, -0.0070917965, 0.0615345947, 0.0599792264, -0.0128613384, 0.1138748899, 0.0107472334, 0.1511045843, 0.0506297387, 0.0328782052, 0.0342807733, -0.0048506632, -0.0262844209, 0.0784467012, -0.0021194054, 0.0423916169, 0.0754141510, 0.0185929853, 0.0257546734, -0.0561837144, 0.0870173797, -0.1168157309, 0.0421934128, -0.0378378890, 0.0482162647, 0.0584684685, -0.0287777837, 0.0905976221, 0.1134120002, 0.0714680031, 0.0366410539, -0.0956640542, 0.0629563406, -0.0227175690, 0.0496427864, 0.0794994235, -0.0355479866, 0.0249203071, 0.0165179856, -0.0732694045, -0.0063222535, 0.0793457404, 0.0281680971, -0.0683182254, 0.0578546189, -0.0206182674, -0.0417882688, -0.0034435615, -0.0608232841, 0.0940596908, 0.1619339734, 0.0631319135, 0.0097387983, 0.0018935163, -0.0399976522, -0.0056493855, -0.0468753539, 0.0688037500, -0.0103419032, -0.0016673014, 0.0355028547, -0.0053861868, 0.0611660108, 0.0689331666, 0.1017022133, -0.0636574849, 0.0476686619, 0.1106710359, 0.0493852906, 0.0353088081, 0.0437957682, 0.1308937967, 0.1127734706, -0.0440111496, -0.0210466832, 0.0891007558, 0.0165504701, 0.0025674016, -0.0086343586, 0.0319196954, 0.0501279905, 0.0249667596, 0.0729592443, 0.0317621864, -0.0040136334, 0.0006523530, 0.0811115205, -0.0070610261, 0.0923978910, -0.0353538245, 0.0729569569, 0.0628174618, -0.0644069687, -0.0092306649, 0.0123550706, -0.0273203943, -0.0311856978, 0.0671641752, -0.0385392159, 0.0621940941, -0.0564298108, 0.1145482063, -0.0016742048, 0.0073182294, -0.0616180077, 0.0727300495, -0.0737491027, -0.0486078449, -0.0440776907, 0.0264483448, 0.0615861267, -0.0549012311, -0.0055258512, 0.0618402250, 0.1895072162, -0.0674642697, 0.0804803073, 0.0822025836, 0.0703199655, 0.0233733170, -0.0058809728, 0.0568737909, -0.0458783023, 0.0525438972, -0.0643387139, 0.0419059396, 0.0447241738, -0.0359039865, 0.0414965153, 0.0841672644, 0.0154029503, 0.0032069348, 0.0686133951, -0.0039005480, 0.0565674268, 0.0747047439, -0.0450495407, 0.0890506431, 0.0434574634, 0.0967524052, 0.0068759941, 0.0727706403, 0.0395266898, 0.0667336956, -0.1455438286, -0.0733621269, -0.0113100614, 0.0493403822, 0.0768933147, 0.1213355735, -0.0382586047, 0.0341211446, -0.0362659506, 0.0318600535, 0.0250283834, 0.0060751489, 0.0438771136, -0.0573083796, 0.0666511580, 0.1159921885, -0.0412274152, -0.0475227349, -0.0582967699, 0.0339237042, 0.0088229505, -0.0715537593, 0.0492042638, -0.0932920426, 0.0518199988, -0.0904952958, -0.0233619399, 0.0251572896, 0.0378601365, 0.0176882613, -0.1007227972, -0.0763702691, 0.0302030127, -0.0742331967, -0.0457532331, -0.0318636633, -0.0917654857, -0.0072233882, 0.0070311595, 0.0375222154, -0.0748103186, 0.0020240699, -0.0712952465, -0.0195696540, 0.0695362911, -0.0696372762, 0.0413962230, -0.0907899737, 0.0523978658, -0.0417948440, -0.1002629623, -0.0331616700, -0.0465224423, 0.0092641367, -0.0021683637, -0.0851302668, -0.0791852623, -0.0656083226, -0.0984068662, 0.0549294613, -0.0308495443, -0.0657230914, -0.0909458250, -0.0272823013, 0.0639119670, -0.0253080204, -0.0185533296, -0.0290765967, -0.0519324504, 0.0249200333, 0.0528188720, -0.0431206077, -0.0604555421, 0.0386349633, 0.0410555974, 0.0625032857, -0.0564219020, 0.0756344721, 0.0067118299, -0.0443158858, -0.0513974689, -0.0130535951, 0.0864521265, -0.0623086877, -0.0285007469, -0.0396866389, 0.0284485184, -0.0164897908, 0.0192476474, 0.0239292011, 0.0190479606, -0.0375481434, -0.0113609703, 0.0588015914, -0.0543050133, 0.0717697889, -0.0506042615, 0.0572508276, 0.1234236583, 0.0619966537, 0.0645929575, 0.0331067331, -0.0836983845, -0.0163464174, 0.0275048409, -0.0533028208, -0.0521489456, 0.0706358030, 0.0272873174, 0.0118247978, 0.0627143830, -0.0510081351, 0.0479319207, 0.0439575650, -0.0044634668, -0.0387947857, -0.0222318042, -0.0474746749, -0.0376324952, 0.0184090957, -0.0414466225, -0.0129927341, 0.0130377887, 0.0250710864, -0.0066701658, -0.0117978388, 0.0087201046, 0.0932602435, -0.0301608052, 0.0283480864, 0.0326667018, -0.0975788832, 0.0653526038, 0.0561143830, -0.0219989307, 0.0049039274, 0.0576511845, 0.0738110468, 0.0309465192, 0.0111970995, -0.0514089093, 0.0391813070, -0.0003396551, -0.0387463048, -0.0007972082, 0.0127472645, -0.0184194185, 0.0102701411, 0.0126949344, 0.0243666992, 0.0716027692, 0.0378496423, -0.0551986098, -0.0434802547, 0.0489333794, 0.0825785846, -0.0803610981, -0.0582199991, 0.0532196090, 0.0363072902, 0.0344449840, -0.0226154178, -0.0243254006, -0.0150101762, -0.0186964814, -0.0479667000, 0.0225551575, -0.0581852347, -0.0054706391, -0.0432564877, 0.0188112054, -0.0871717334, 0.0411296114, -0.0693130866, 0.0503645279, -0.0444896929, -0.0163896773, 0.1040551513, 0.0476991720, 0.0456319526, 0.0793928951, 0.0298994109, 0.0412916765, -0.0665757805, -0.0690932944, -0.0566050522, 0.0740191191, -0.0843621343, 0.0612215847, -0.0083138254, -0.0382064581, 0.0348660573, -0.0852554291, -0.0656514242, -0.0170986950, 0.0386425108, -0.0932879224, -0.0623076782, 0.0105866101, 0.0003600144, -0.0728631988, 0.0714818612, -0.0058782781, 0.0533621535, -0.0086353561, -0.0078131659, -0.0943753421, 0.0869654343, 0.0037484611, -0.0529709756, 0.0448080823, -0.0575550571, -0.0056835627, -0.1054294929, 0.0127182472, 0.0247843564, 0.0681528300, 0.0723731294, -0.0419994928, -0.0078812959, -0.0178784393, -0.0512548164, 0.0039904080, 0.0677872077, 0.0489321463, 0.0453620292, 0.0484343395, -0.0836987942, -0.0187711697, 0.0439439565, 0.0109830135, 0.0438081585, -0.0772022903, -0.0561405160, -0.0043070591, -0.0868444070, 0.0264237113, -0.0817846805, 0.0562450476, 0.0449698754, -0.0630933568, 0.0623786300, -0.1064222902, 0.0201715287, -0.0564306043, -0.0308366977, -0.0249268971, -0.1287056357, -0.1011382639, -0.0108223641, 0.0253500100, 0.0415681116, -0.0312096272, -0.0841061324, -0.0264328551, -0.0905517712, 0.0412439890, -0.0942783952, 0.0659875944, -0.0193980988, -0.0901962593, 0.0390011668, -0.0418500751, 0.0602248646, 0.0191274080, 0.0350821577, 0.0120577728, 0.0564116165, 0.0400400311, 0.1030874774, 0.0841398090, -0.0709051862, 0.1094824746, 0.0228571147, 0.0179701149, -0.0840211511, 0.1079931855, 0.1155968085, 0.0404644348, 0.0069635138, 0.0794189572, -0.0393267013, 0.0628711730, 0.0226691514, -0.0228774846, -0.0105481558, 0.0680426359, 0.1085820347, -0.0697475299, 0.1137425303, -0.0443648584, -0.0250680912, -0.0071419729, 0.0446207076, 0.0799589977, 0.0694507509, 0.0312258061, -0.0319569111, 0.1002062559, 0.0178797543, 0.0679802969, 0.1117872223, 0.0220805723, -0.0245115086, 0.0793321431, 0.1056454629, 0.0571194738, 0.0290544536, 0.0946258381, 0.0613540709, -0.0337349065, 0.1304133087, -0.0264468864, 0.0969348922, 0.0075319456, 0.0495642982, -0.0164920129, 0.0473908037, -0.0377014503, 0.0328358375, -0.1442395151, -0.0216942839, -0.0207832605, -0.0034140870, 0.0604222417, -0.0266301781, -0.0458377264, 0.0861549154, 0.0578179434, 0.0495198295, 0.0718515813, 0.0358090885, 0.0140672820, 0.0286405161, -0.0339993015, 0.0272500794, 0.1007967144, 0.0007352895, 0.0572119579, -0.0772420242, 0.1205852777, -0.0024473672, 0.1214907840, 0.0576958209, -0.0539123341, 0.0391063169, -0.0401444323, 0.0444669090, 0.0386343151, 0.0162926838, 0.1065155864, 0.0528556034, 0.0393319912, 0.0386099406, 0.1761324257, 0.0065867230, 0.0226041246, 0.0779093429, 0.1033705771, -0.0004412535, 0.0999941230, -0.0353287905, -0.0270497631, 0.0087041985, 0.0328998640, 0.0113839014, 0.0057246112, 0.0510626212, -0.0250102933, 0.0217346065, 0.0941985101, 0.1288388520, 0.0961301550, -0.0053635472, 0.0142575689, -0.0040058261, 0.1180959344, -0.0142774954, 0.0028544366, -0.0463261642, -0.0301735867, 0.0381712839, -0.0305624940, 0.0033772611, -0.0188149996, -0.0022933623, -0.0214460529, -0.0687149316, -0.0268924143, 0.0647933632, 0.0984788090, 0.1143619120, 0.1154598072, 0.0385675766, 0.0116252694, 0.0466539487, -0.0205320418, -0.0324602276, 0.0616585910, -0.0753266513, 0.1175907254, 0.0956814587, -0.0306455828, -0.0911552459, 0.1287377477, -0.0188270062, -0.0249042809, -0.0071990634, 0.0777192488, 0.0581968464, -0.0262334440, 0.0344048403, 0.0176311545, 0.0665749907, 0.0680728182, 0.1133002341, -0.0038284194, 0.1389508992, 0.2148424089, -0.0631141141, 0.0683185980, -0.0411218554, -0.0372305997, 0.0641955584, 0.0067799767, 0.0488657802, 0.0491195843, 0.0009048225, 0.0354922637, 0.0874046907, -0.0682288334, -0.0263098162, 0.0677971467, 0.0765547380, 0.0748893619, -0.0125442678, 0.0727037936, 0.0211957805, 0.1052807420, 0.0058692824, -0.0271421522, 0.0906135514, 0.0572282635, -0.0345477872, 0.0176964086, 0.0026674988, 0.0859055147, 0.0913909748, -0.0150305051, 0.0544826798, -0.0397687927, 0.0625649244, 0.0304179769, 0.0674235076, 0.1048231944, 0.0887633190, -0.0154899387, -0.0562988855, 0.0175130479, -0.0156647060, 0.0200700164, -0.0564597324, -0.0768289566, 0.0307365991, 0.0208275337, 0.0549832284, -0.0880240798, 0.0658970699, 0.0431086086, -0.0283955485, 0.0527023710, -0.0263936631, -0.0459347963, 0.0248580836, -0.0737976134, 0.0782798752, -0.0708198324, 0.0058087129, 0.0504202507, -0.0317776091, -0.0104729878, 0.0941355303, 0.0964907780, -0.0760498643, 0.0561008640, -0.0469548665, -0.0448990650, -0.0351533107, 0.0556113161, -0.0547314212, -0.0017895147, 0.0251380932, 0.0136838201, 0.0124328714, 0.0025045627, -0.0772922486, 0.0637917742, -0.0601770170, -0.0144389225, -0.0581678040, -0.0069658789, -0.0719671845, -0.0847237185, 0.0086066024, -0.0177348629, 0.0487306379, -0.0002744673, -0.0655743405, 0.0194894411, -0.0928422511, 0.0451949686, -0.0576015860, 0.1769975722, 0.0028043434, -0.0549659096, -0.0537310354, 0.0360997505, -0.0211768094, 0.0254829656, 0.0147846304, 0.0443298854, 0.0256167687, -0.0508223437, 0.0076824841, -0.0359200723, -0.0143394768, -0.0602567047, -0.0016544674, -0.0144956363, 0.1190148592, -0.0301798284, 0.0373555720, 0.0299027506, 0.0498928428, 0.0290041473, 0.0015423751, 0.0561658442, -0.0757987648, 0.0454030745, 0.0059075565, -0.0026761983, -0.0318272859, 0.0356135070, -0.0692618862, -0.0844414905, -0.0361148827, -0.0690772459, -0.0434433222, -0.0421793051, 0.0145668071, -0.0025528448, -0.0390996635, -0.0356311165, 0.0344092920, 0.0693999529, 0.0249679293, -0.0636432320, 0.0303206909, -0.0307352468, 0.0613522194, -0.0076087452, 0.0777918175, 0.0056243520, 0.0200439952, 0.0188616551, 0.0473475941, 0.0305414051, -0.0448390990, -0.0603729971, -0.0019538337, 0.0739016235, 0.0423252098, 0.0689450949, -0.0460269637, -0.0416834131, -0.0140738441, 0.1501817256, -0.0260864217, 0.0751101077, -0.0010781933, -0.0146809276, -0.0676578656, 0.0486298278, -0.0064989617, -0.0379647389, 0.0183885321, 0.0791974142, 0.0163988844, 0.0360095017, 0.0274451207, -0.0279928204, -0.0493179224, -0.0394799635, 0.1302693635, 0.0792179480, 0.0549926348, 0.0352998264, 0.0899314806, -0.0790551007, 0.0433229282, 0.0756274238, 0.0376714841, 0.0485757329, -0.0637456477, -0.0639156625, -0.0069151791, -0.0611142032, -0.0050352514, -0.0645413324, -0.0800159499, 0.0158840306, -0.0673142001, -0.0608714633, 0.0214480162, -0.0311478395, 0.0776560754, -0.0591489188, 0.0134283639, 0.0266483724, 0.0706731454, 0.0403776206, 0.0737451389, -0.0884250477, -0.0436835922, -0.0790496245, 0.0701995343, 0.0421284996, -0.0513174608, -0.0200938564, 0.0510624051, -0.0147259887, -0.0145751052, -0.0280774944, -0.0523857139, -0.1044425368, 0.0363321416, -0.0560891964, 0.0213986319, -0.0818968415, -0.0511515923, 0.0781831890, -0.0603110604, -0.0523687601, -0.0212315768, 0.0380657166, 0.0934725776, -0.0753963441, 0.0659914985, 0.0756934583, -0.0516620018, -0.0845475271, 0.1054577678, -0.0267529376, -0.0725615397, -0.0437266380, 0.0728813708, -0.0614141598, -0.1354742795, -0.0242354441, 0.0490349568, 0.0053211115, 0.0457852818, 0.0833070129, 0.0206575785, -0.0619300492, -0.0017046522, 0.0104486365, 0.0597811304, -0.0769609362, 0.0595012754, 0.0298071001, 0.0199462324, -0.0845262781, -0.0040533841, -0.1965152025, 0.0247807801, -0.0929158702, -0.0495709740, 0.0678912476, 0.0551064275, -0.0611015223, -0.0634412169, 0.0785232037, 0.0776377544, 0.0188605413, -0.0082914680, -0.0053972891, -0.0504516698, -0.0295191184, 0.0394510850, -0.0033751652, 0.0536955930, -0.0178668704, -0.0096998690, 0.0509904101, -0.0025972368, -0.0139207412, -0.0644190162, 0.0490537584, -0.0737918168, -0.0934035555, 0.0339226648, 0.0011723724, 0.0110342316, 0.0933535397, -0.0059866044, -0.0522583053, 0.0677582398, -0.0563429072, -0.0281495601, 0.0007330159, -0.0224375911, -0.0320599675, -0.0158485118, 0.0546118245, -0.0663749948, 0.0439793020, 0.0940786153, 0.0450477228, 0.0237935353, 0.0630976409, 0.0130243246, 0.0107649630, -0.0024834895, 0.0887908936, 0.0264577977, -0.0502718352, 0.0006123708, -0.0284541696, 0.0688896477, 0.0082314163, 0.0730492473, 0.0217966400, -0.0036355676, -0.0330214240, -0.0120939817, -0.0643780604, 0.1144676730, 0.0685102120, -0.0307851750, 0.0017001587, 0.0776578411, 0.0901539847, -0.0301612541, -0.0211513173, 0.0697192773, 0.0893010423, -0.0416470505, 0.0058231670, -0.0630241111, 0.0298297908, 0.0580625497, -0.0265678745, -0.0084713539, 0.0611273162, 0.0057797143, 0.0791914016, 0.0223864969, 0.0912293643, -0.0012416888, -0.0016150427, -0.0515410900, 0.0262361336, -0.0310760140, 0.0150891021, 0.0715315789, 0.0207238179, -0.0027300364, 0.0496478416, 0.0007303498, -0.0377610698, -0.0902172253, -0.0292894989, 0.0037626885, -0.0092680985, -0.0014044847, 0.0876778215, -0.0288027413, -0.0242017172, -0.0696288943, 0.0203425009, -0.0366435535, -0.0543701053, -0.0243768021, 0.0483150259, 0.1160390675, 0.0877012014, -0.0706348643, -0.0538896881, 0.0227834340, 0.0032453942, 0.0752080977, -0.0307053626, -0.0262160990, 0.0894501656, 0.0566111580, -0.0175981615, 0.0141596310, -0.0096407952, -0.0213237312, 0.0455154702, 0.0965125859, -0.0485886410, -0.0270246658, -0.0031394782, -0.0468672737, 0.0057748766, -0.0240412466, 0.0492416546, 0.0936098099, -0.0576179065, 0.0275888536, 0.0671899095, 0.0022605546, 0.0435751714, 0.0786681995, -0.0025850707, 0.0036346475, -0.0134359831, -0.0495413765, 0.0112456279, -0.0383400880, -0.0371523872, 0.0807321817, 0.0712090135, -0.0415981151, 0.0442954898, 0.0558101535, -0.0984966531, -0.0615999699, 0.0553925186, 0.0456657670, 0.0204693079, -0.0065307179, 0.0798044726, 0.0610174648, 0.0481385440, -0.1026874259, 0.0886025950, 0.0598090105, 0.0186588522, 0.0776527375, 0.0976942927, -0.0116576832, 0.0572234914, 0.0600368269, 0.0990703553, -0.0736623257, 0.0059904950, 0.0128842369, 0.0699644014, 0.0025064542, 0.1229411736, 0.0389524586, 0.0780960470, -0.0163749568, -0.0459488146, 0.0762497485, -0.0516882390, -0.0292086694, 0.0002489733, -0.0369646512, 0.1047196314, -0.0090183448, -0.0186207239, 0.1458420753, 0.0074258102, -0.0102695208, -0.0425812714, 0.1053367555, 0.0408379696, 0.1205397621, 0.0360799320, 0.0290769842, 0.0020084209, -0.0349100716, 0.0615898222, 0.0690793023, 0.0072398433, -0.0434554592, 0.0162534826, 0.0763094351, -0.0473148711, 0.0984676927, 0.0007919159, -0.0199953429, 0.1226423979, 0.0517668426, 0.0446064509, 0.0941917151, 0.1000763327, 0.0370510146, -0.0103581361, 0.0128642935, 0.0883583575, 0.0696313605, -0.0677605867, 0.0397032127, 0.0036992452, 0.0471920371, -0.0250355583, 0.0404893719, 0.0455238894, 0.0084741777, 0.0225770138, -0.0183266439, 0.0677258372, 0.0439563245, -0.0461523384, 0.0941858962, -0.0130618745, 0.0520474464, 0.0804234818, 0.0788879991, 0.0938898399, -0.0484282635, 0.1187526435, 0.1027151272, -0.1237680912, -0.0641719624, -0.0603491254, -0.0574955419, 0.0066160816, 0.0366581976, 0.0433366857, 0.0361001529, -0.0539464615, 0.0858090371, 0.0018463191, 0.0432058834, -0.1691808403, 0.0066006607, -0.0080401879, -0.0313693285, -0.0077391877, 0.0206736773, -0.0425984263, 0.0283684041, 0.0322019756, -0.0177079868, -0.0463055633, -0.0237256084, 0.0608931258, 0.0090152221, -0.0611060038, 0.0543547235, -0.0488459431, -0.0283484403, -0.0745936409, 0.1275676191, -0.0156490523, 0.1092277020, -0.0029591066, -0.0432684757, -0.0006985938, -0.0549978241, -0.0252593383, -0.0075296839, -0.0323527716, -0.0587269440, 0.0631548390, -0.0547236018, 0.0708106086, -0.0640537068, -0.0973890871, 0.1036295891, -0.0746843293, 0.1051052660, 0.0119090173, -0.0048604012, 0.0951187611, 0.0027626464, 0.0331986360, -0.0917577669, 0.2213515639, -0.0612303950, 0.0277959350, -0.1365261674, 0.0744997114, 0.0699781254, 0.1543508470, -0.0833697468, 0.1528073847, 0.0361227356, 0.0453600958, 0.0525390841, 0.0583907329, 0.1166870892, 0.0088177854, 0.0537122451, 0.0472512990, 0.0462588556, 0.0125327986, 0.0216077268, 0.2733054161, -0.0417049564, 0.0807155818, 0.0785580128, 0.0835014209, 0.0040741512, 0.0007120400, 0.0422395393, 0.0159327965, 0.0501792282, -0.0846793354, 0.1026982814, 0.0372074395, 0.0859832764, 0.0904815644, 0.0622219630, 0.0332248658, -0.0124716964, 0.1896606982, 0.0856891274, 0.1211334541, 0.0444048420, 0.1466058046, 0.1027524546, 0.1321717948, 0.1457706839, 0.0515069030, 0.1311180741, 0.0480880849, 0.1409220546, -0.1643133014, 0.1312499344, 0.0032372002, 0.0293337982, 0.1273671687, 0.0646030009, 0.0847753584, 0.1098344028, 0.0872104317, -0.0013290877, 0.0667240769, -0.0259660985, 0.0586018488, -0.0553539991, 0.0267034546, -0.0972765684, 0.1004352421, -0.0420951061, 0.1029494479, 0.0224777330, 0.1155029237, 0.0458041839, 0.0853486285, 0.0876927450, -0.0439286530, 0.0669940263, -0.0401067063, 0.0925502032, 0.0230211671, 0.0685397983, 0.0747313276, 0.0721452981, -0.0286235586, 0.1024968401, -0.0014307618, -0.0439816527, 0.0679922476, 0.0727616772, 0.0872052908, -0.0181269981, -0.0141463745, -0.0332415067, 0.1055734009, 0.0975827277, -0.0084749078, 0.0600387268, 0.0621622689, -0.0135490168, 0.0903520063, 0.0957019851, -0.0423570126, 0.0899324045, 0.0532393418, 0.0923107788, 0.0504697934, 0.0460140184, 0.1299871355, -0.0052476763, 0.0631708205, 0.0750848651, -0.0633252487, -0.0335631780, -0.0268023312, 0.0125747574, -0.1072766334, 0.0295323264, 0.1050037518, 0.0072331112, 0.0501612127, -0.0090119643, 0.1138536260, 0.0976063386, 0.0439694449, -0.0137946010, 0.0775616542, -0.0570380390, 0.1316964477, 0.0947868302, -0.0446054786, -0.0988540053, 0.0654128119, 0.0091856392, -0.0065215062, 0.0654896870, 0.0004367516, -0.0617438592, 0.0189679079, -0.0335003473, 0.0688260347, -0.0089271469, 0.0798016787, 0.0486009195, -0.0651755035, 0.0975080654, -0.0557929724, -0.0052744937, -0.0588833168, 0.0274789520, 0.0612281524, -0.0600906573, 0.0709344968, -0.0055826507, -0.0011318186, 0.1240555122, -0.0241865031, 0.0885011032, 0.0416244864, -0.0463922247, -0.0379157141, -0.0057094591, 0.0699741319, -0.0176817458, 0.0572957359, 0.0155392615, -0.0130845718, -0.0125874188, 0.0698070973, 0.0055688741, -0.0103763323, 0.0679131076, 0.0782255083, -0.0033504139, -0.0320492126, -0.0234635025, -0.0102873612, 0.1094682291, 0.0993120596, 0.0055014752, -0.2277709842, 0.1381900012, -0.0131584238, -0.0023286089, 0.0748445764, 0.0668731779, 0.1120936573, 0.1156379208, 0.0699583068, -0.0669687614, -0.0283020716, -0.0306493640, -0.0691056401, -0.0132001713, -0.0726127401, -0.0430915467, 0.0824222937, 0.1933260709, -0.0552951470, -0.0725138560, 0.0510712750, 0.0153137632, -0.0941449553, -0.0544082001, -0.0117890472, 0.0510369614, 0.0344832912, -0.0908058137, -0.0769344494, 0.0720659867, -0.0093370620, -0.0044587553, 0.0076237340, 0.0021030887, -0.0185424630, 0.0174303278, -0.0942167491, -0.0459558517, 0.0234816205, 0.0342735015, 0.0169736054, 0.0286532883, -0.0222910345, 0.0058933906, -0.0465258621, -0.0544543415, 0.0205673464, -0.0626458228, -0.0764938593, -0.0425660573, 0.0684377402, -0.0642639771, -0.1009953395, -0.0228805728, -0.0085203582, -0.0665755123, -0.0051204646, 0.0252190009, -0.0491066314, -0.0554202683, 0.0100222966, 0.0276758913, -0.0707641840, -0.0988447070, 0.0344014466, -0.0545509681, -0.0249730889, -0.0012107122, -0.1135113314, 0.0993353277, -0.0412865579, -0.0237857047, -0.0574800409, -0.0474846996, 